<?xml version="1.0"?>
<opencv_storage>
<my_svm type_id="opencv-ml-svm">
  <svm_type>C_SVC</svm_type>
  <kernel><type>LINEAR</type></kernel>
  <C>1.</C>
  <term_criteria><epsilon>2.2204460492503131e-016</epsilon>
    <iterations>1000000</iterations></term_criteria>
  <var_all>576</var_all>
  <var_count>576</var_count>
  <class_count>2</class_count>
  <class_labels type_id="opencv-matrix">
    <rows>1</rows>
    <cols>2</cols>
    <dt>i</dt>
    <data>
      -1 1</data></class_labels>
  <sv_total>1</sv_total>
  <support_vectors>
    <_>
      2.21607611e-001 -4.81687099e-001 -5.29262483e-001 -1.21798329e-001
      8.98086205e-002 -2.65115738e-001 -6.36304319e-002 -2.70359129e-001
      1.30889133e-001 2.34063566e-001 -6.42663777e-001 -5.40115356e-001
      2.10777640e-001 4.96474087e-001 3.48325213e-003 3.54896128e-001
      4.94389124e-002 3.16667467e-001 -2.89068550e-001 -6.56540170e-002
      2.04994291e-001 -5.49682528e-002 9.32370722e-002 1.98863178e-001
      -1.47076204e-001 8.37177131e-003 1.83619156e-001 -3.98685217e-001
      3.12318861e-001 4.37929362e-001 2.22056508e-001 7.92164952e-002
      1.04483083e-001 -2.56938607e-001 3.07869852e-001 3.42653394e-001
      1.26151204e-001 1.20936014e-001 2.34325379e-001 1.77920297e-001
      9.84955192e-001 3.82678181e-001 1.38906315e-001 3.44157010e-001
      6.34572506e-002 4.02985573e-001 2.90623128e-001 7.74013937e-001
      2.09740266e-001 8.59393537e-001 3.63567352e-001 5.22808671e-001
      4.09003168e-001 3.47363353e-001 -2.78765224e-002 -1.10412322e-001
      3.87533665e-001 -2.03646831e-002 7.37168729e-001 -2.49079242e-001
      -3.13893616e-001 -4.01361316e-001 -1.53565511e-001
      -4.50638682e-001 -1.80825487e-001 5.44722080e-001 1.26593485e-001
      2.02586651e-001 -9.11554173e-002 -1.50452390e-001 -1.64990291e-001
      1.41205639e-001 2.68473864e-001 -1.18947290e-001 2.67420501e-001
      3.75620931e-001 6.31533444e-001 1.03022553e-001 -1.47224054e-001
      1.60773471e-001 4.63176847e-001 -8.25882107e-002 1.81318924e-001
      4.28368412e-002 4.55403000e-001 5.58382452e-001 1.96478248e-001
      -1.52292028e-001 5.03868349e-002 -1.21684976e-001 -1.54679716e-001
      -3.00727673e-002 6.18616462e-001 4.18048531e-001 4.59242880e-001
      -7.20361844e-002 -4.87183541e-001 -3.69512737e-001 4.84481789e-002
      -3.53089683e-002 -1.41691193e-001 3.02201152e-001 5.27393520e-001
      1.44945711e-001 -2.10173987e-002 -5.09525180e-001 -2.31406614e-001
      -5.52128889e-002 -1.25965610e-001 9.43460269e-004 1.37858525e-001
      4.45633352e-001 8.59696567e-001 -2.42714301e-001 -1.52586877e-001
      1.94422334e-001 -3.26827206e-002 4.18185145e-001 3.14449608e-001
      2.44845062e-001 3.63380283e-001 2.48691261e-001 -2.42888797e-002
      1.30545154e-001 -2.76699848e-002 3.87070507e-001 -6.29952490e-001
      3.14286560e-001 4.48533654e-001 6.49340570e-001 3.42846483e-001
      -1.93879783e-001 -5.01352370e-001 6.49548322e-002 -5.43090343e-001
      -1.70454293e-001 3.43486592e-002 1.15877418e-002 4.04965430e-001
      9.34864506e-002 -3.80425811e-001 -4.06728126e-002 1.21448226e-001
      8.88991803e-002 1.65132239e-001 3.03832322e-001 4.95631903e-001
      -1.38853818e-001 -3.00496817e-001 2.84591666e-003 8.80493104e-001
      3.20317715e-001 2.03019485e-001 2.55770087e-001 4.97309148e-001
      7.47114778e-001 -2.22541749e-001 -2.59113342e-001 -5.43988720e-002
      1.77267775e-001 -3.55489776e-002 2.92801231e-001 1.04806945e-001
      -4.07470584e-001 -1.86342999e-001 -2.88981140e-001
      -7.37556159e-001 -3.66285115e-001 1.75058052e-001 2.58544832e-001
      5.45003474e-001 2.55237669e-001 2.48213168e-002 -3.94738674e-001
      -5.02171397e-001 -9.04000401e-001 -6.86895922e-002 8.54336917e-002
      4.74324124e-003 3.66060704e-001 5.64825475e-001 -3.01140428e-001
      -2.20922977e-001 3.76442410e-002 2.31433123e-001 -2.61905819e-001
      -1.50355294e-001 -2.34426051e-001 -1.52878717e-001 6.39318526e-001
      4.14991498e-001 7.49569774e-001 1.05417025e+000 4.42801684e-001
      2.70141870e-001 4.51915503e-001 -2.34191611e-001 -6.24205284e-002
      5.32651901e-001 -3.33393157e-001 -1.93358749e-001 -4.56087232e-001
      -2.26542950e-001 -5.47192454e-001 5.75506352e-002 5.24088323e-001
      2.11136982e-001 4.55440432e-001 3.00085396e-001 6.77803159e-001
      2.04100087e-001 -2.35500142e-001 3.71227890e-001 2.79711097e-001
      -2.50017762e-001 -1.97107881e-001 2.14078844e-001 1.19535603e-001
      -2.34314203e-002 1.03580877e-001 -3.25086981e-001 4.71507967e-001
      -1.62898645e-001 -5.08151114e-001 -4.24916208e-001
      -2.05670923e-001 1.57093242e-001 4.25008237e-001 5.24469078e-001
      2.49822974e-001 -4.68503647e-002 3.74841653e-002 1.09100670e-001
      -1.41269248e-002 -3.56605172e-001 6.89207256e-001 7.05788791e-001
      2.36342430e-001 -4.29130405e-001 -1.52255759e-001 -5.71501732e-001
      -6.49792671e-001 -6.63650692e-001 1.07146986e-001 2.54680067e-002
      1.39823183e-001 1.60832480e-001 -4.02939990e-002 5.85481405e-001
      -3.98156017e-001 -4.16778296e-001 -6.92612171e-001 2.51311392e-001
      2.88183875e-002 -1.39767170e-001 1.91415504e-001 -2.22470567e-001
      -3.79002243e-001 -9.37576890e-002 7.41388835e-003 4.39552814e-001
      2.09531352e-001 1.00446239e-001 1.10308789e-001 -1.00327566e-001
      -3.84865463e-001 -4.82139230e-001 1.81959510e-001 4.07858014e-001
      6.52277887e-001 1.22012861e-001 -4.49501090e-002 -8.99251252e-002
      1.23628236e-001 -2.58168399e-001 3.48979145e-001 9.83977616e-002
      1.51001915e-001 2.53306422e-002 -5.36046863e-001 -1.86445430e-001
      -1.13698445e-001 -1.04057521e-001 2.64734477e-001 1.77976176e-001
      2.65599281e-001 1.08147211e-001 -2.33746827e-001 -2.09855974e-001
      -1.41167387e-001 2.69354761e-001 -2.64615059e-001 -5.15915036e-001
      -1.10945493e-001 2.80038446e-001 3.60088795e-001 6.50059357e-002
      -8.52629319e-002 4.27190870e-001 4.19708222e-001 -4.13487047e-001
      -1.98271722e-001 4.40629050e-002 7.12682903e-002 2.74485171e-001
      1.64552838e-001 -5.78705259e-002 -1.60909891e-001 -1.88064039e-001
      3.40203866e-002 1.50680497e-001 -7.18595743e-001 -1.26663223e-001
      7.03403205e-002 3.63152713e-001 4.27679643e-002 -7.07975030e-002
      1.78580523e-001 5.85210398e-002 4.23684776e-001 6.77354485e-002
      3.93592240e-003 3.68488505e-002 4.10553396e-001 2.30110973e-001
      -2.22673982e-001 -3.20429116e-001 1.21271424e-001 2.83961184e-002
      -1.97598748e-002 4.14939225e-001 1.63366333e-001 4.54345733e-001
      2.33316198e-001 6.86149478e-001 4.35641736e-001 1.39454588e-001
      -5.64510822e-001 5.34080267e-001 4.74856734e-001 3.99737746e-001
      3.66996706e-001 1.91555962e-001 1.95630584e-002 -3.50757897e-001
      1.44242451e-001 3.96209210e-001 -5.36926568e-001 -8.10882330e-001
      -5.34405351e-001 3.34291637e-001 -1.60470098e-001 2.80828804e-001
      -2.80374646e-001 2.27338254e-001 2.76497602e-001 3.99591118e-001
      -4.77015704e-001 -8.38180423e-001 -5.87827206e-001 6.10532522e-001
      2.34051347e-001 1.55734956e-001 -1.29534140e-001 -6.61931813e-001
      -2.12130845e-001 4.73541915e-001 1.22772604e-001 4.74483639e-001
      7.68867493e-001 6.23251379e-001 3.56741250e-001 2.87182312e-002
      -3.83994937e-001 -4.15379673e-001 1.41384348e-001 1.48841292e-001
      1.84793681e-001 -2.37176567e-001 -7.24453032e-001 2.45410770e-001
      3.70423138e-001 -7.84086525e-001 8.50309655e-002 -1.52898490e-001
      -6.13478184e-001 -4.87578392e-001 1.94282129e-001 -2.47039631e-001
      -1.84543998e-004 1.65022448e-001 -5.20847850e-002 -1.00666948e-001
      -1.64654493e-001 -3.57645124e-001 -2.95895040e-001 5.23393631e-001
      -2.39058793e-001 -2.20555514e-001 -2.14404389e-001 3.31534863e-001
      -9.80665907e-002 -5.41881204e-001 -3.78757389e-003 3.97581071e-001
      1.65164486e-001 -1.97795436e-001 -3.57126176e-001 -5.83749302e-002
      -1.11823708e-001 -4.42050964e-001 5.35504520e-002 1.70403883e-001
      4.08022642e-001 9.29002315e-002 -4.21726316e-001 -6.48470461e-001
      -5.64549685e-001 -3.91069353e-002 -4.99994189e-001
      -7.03667760e-001 2.14900643e-001 2.52469212e-001 -6.26296774e-002
      -6.44317925e-001 -4.32871968e-001 -7.24555627e-002
      -1.33803427e-001 -1.48391873e-001 -1.45896420e-001
      -2.08001032e-001 6.26516417e-002 3.95500124e-001 3.97958159e-001
      5.09786904e-001 -2.56511439e-002 -3.53743225e-001 -3.35418761e-001
      -3.86289954e-001 -2.06651062e-001 -2.51668900e-001 4.36115772e-001
      3.35397601e-001 2.21254200e-001 -2.29572430e-002 6.11657500e-001
      1.56088859e-001 -3.14499363e-002 -1.58217996e-001 -1.30266801e-001
      5.79144299e-001 3.23408395e-002 4.39127386e-001 -6.49210960e-002
      -2.83289224e-001 -4.14800584e-001 -2.07397103e-001
      -6.84065461e-001 -1.44001171e-001 1.09435476e-001 1.91700131e-001
      -7.79757276e-002 3.28517020e-001 6.23628020e-001 -2.30925724e-001
      -5.41646719e-001 -5.99800885e-001 -1.77355498e-001
      -2.05881447e-001 -3.85956019e-001 -4.89674747e-001
      -7.81055018e-002 8.03811848e-001 5.87764502e-001 4.46491897e-001
      3.46840978e-001 4.21818584e-001 -2.68650174e-001 -5.70410907e-001
      -3.09341192e-001 4.15130943e-001 7.71577179e-001 6.17874563e-001
      -8.22887756e-003 2.28702202e-001 3.15648288e-001 2.36314967e-001
      -3.48062158e-001 -3.24714273e-001 -1.38215404e-002 4.14592505e-001
      7.62804449e-002 -2.23537520e-001 -4.58845556e-001 -7.52701089e-002
      -3.16776514e-001 -1.63008094e-001 -4.93306905e-001 5.39887071e-001
      1.12736717e-001 -3.44313271e-002 -4.61324364e-001 -4.34332103e-001
      3.00136387e-001 2.67578721e-001 2.08638355e-001 -6.79345578e-002
      1.37492359e-001 8.72923210e-002 3.86656880e-001 2.37909928e-001
      -4.04380202e-001 5.57886995e-002 -4.53880072e-001 4.57601883e-002
      3.29171002e-001 1.61958545e-001 1.77068755e-001 4.00224209e-001
      2.02450112e-001 -5.64891040e-001 -2.66330004e-001 -5.32046184e-002
      -7.55134463e-001 -2.57915527e-001 5.37743807e-001 1.13739884e-002
      4.50480849e-001 5.69997132e-001 6.40920848e-002 -4.04871209e-003
      -2.95180887e-001 -1.42334417e-001 2.83367485e-001 5.41267276e-001
      3.93699370e-002 3.44226020e-003 -4.30457965e-002 -2.01927811e-001
      -1.98796183e-001 1.69493333e-001 2.05901891e-001 2.97092229e-001
      -6.15575194e-001 5.90951979e-001 5.52491546e-002 1.44942433e-001
      3.78235936e-001 8.75910223e-001 -5.72725117e-001 -4.39364612e-001
      2.26618171e-001 -2.71874368e-001 2.61906445e-001 -7.66575485e-002
      4.22976315e-001 4.77520287e-001 2.81409025e-001 -3.97068202e-001
      -4.04074281e-001 -8.38447735e-002 -3.42301488e-001 4.51064371e-002
      -4.38572437e-001 1.22946069e-001 6.14424646e-001 6.21067166e-001
      -5.13299584e-001 -9.81437191e-002 2.11150631e-001 2.25002319e-001
      -5.69961071e-002 -1.18713491e-001 2.30078712e-001 2.08752424e-001
      2.61825938e-002</_></support_vectors>
  <decision_functions>
    <_>
      <sv_count>1</sv_count>
      <rho>1.9819290117112640e+000</rho>
      <alpha>
        1.</alpha>
      <index>
        0</index></_></decision_functions></my_svm>
</opencv_storage>
