<?xml version="1.0"?>
<opencv_storage>
<opencv_ml_svm>
  <format>3</format>
  <svmType>C_SVC</svmType>
  <kernel>
    <type>LINEAR</type></kernel>
  <C>1.</C>
  <term_criteria><iterations>1000000</iterations></term_criteria>
  <var_count>576</var_count>
  <class_count>2</class_count>
  <class_labels type_id="opencv-matrix">
    <rows>2</rows>
    <cols>1</cols>
    <dt>i</dt>
    <data>
      -1082130432 1065353216</data></class_labels>
  <sv_total>1</sv_total>
  <support_vectors>
    <_>
      -1.05512515e-02 -4.35091674e-01 -5.39681077e-01 9.88249760e-03
      1.43581599e-01 -1.50940552e-01 -2.10527275e-02 -4.15904105e-01
      3.52648720e-02 1.77230358e-01 -7.22170413e-01 -6.14447594e-01
      4.93674248e-01 8.42778265e-01 2.41073176e-01 5.35144687e-01
      -1.99256241e-01 3.00052464e-01 -3.65924686e-01 -8.27803016e-02
      7.26682916e-02 -2.01331362e-01 1.12073079e-01 2.68669158e-01
      -5.02545983e-02 -5.29816486e-02 1.33100495e-01 -3.81053329e-01
      2.75843769e-01 2.99469322e-01 1.72532901e-01 7.68332090e-03
      -8.66965950e-03 -3.44907433e-01 1.77347228e-01 2.85879433e-01
      1.97722510e-01 1.75126836e-01 3.12621117e-01 2.62058914e-01
      9.77520347e-01 4.02873784e-01 2.44699776e-01 4.18750495e-01
      -1.36029478e-02 5.18170595e-01 2.81448305e-01 8.52722108e-01
      1.86052635e-01 6.56444728e-01 4.69062924e-01 5.60330689e-01
      5.84648013e-01 5.61882436e-01 1.88790215e-03 -1.77727222e-01
      3.87001663e-01 8.14170483e-03 8.02245677e-01 -2.29037091e-01
      -2.26110384e-01 -4.65990245e-01 -2.26903349e-01 -5.52333891e-01
      -2.81986982e-01 4.05206800e-01 1.26113549e-01 2.66956300e-01
      5.02276905e-02 -1.40711712e-02 -2.29577795e-01 2.44705826e-02
      4.50234443e-01 -3.94329652e-02 1.53086916e-01 2.75587261e-01
      5.56702197e-01 6.00880757e-02 -2.08860084e-01 9.73206162e-02
      6.17412210e-01 3.30419168e-02 9.56815034e-02 -1.91150379e-04
      3.17165464e-01 3.63442808e-01 1.20275073e-01 -1.44706443e-01
      -3.17601711e-02 -3.42034660e-02 -9.24713239e-02 8.64848029e-03
      6.50154829e-01 3.16105574e-01 4.60147947e-01 -2.26669274e-02
      -5.00827253e-01 -4.94501233e-01 1.42536163e-01 -1.73440427e-01
      -1.90452173e-01 4.29896384e-01 5.44601500e-01 -6.09630942e-02
      6.64012209e-02 -3.58067751e-01 -2.26805538e-01 -2.01228693e-01
      -2.18100339e-01 -1.56696513e-01 -2.27992926e-02 4.06897485e-01
      8.68384659e-01 -1.55117437e-01 6.38047978e-03 3.01730603e-01
      4.59061265e-02 3.74124914e-01 7.01363832e-02 6.47073239e-02
      4.75896567e-01 3.42872709e-01 8.10169652e-02 1.22769222e-01
      -2.90319026e-01 3.62013102e-01 -6.64749086e-01 3.96561712e-01
      5.71556628e-01 6.45398974e-01 2.86194235e-01 -1.17717706e-01
      -4.58119512e-01 2.02189088e-01 -6.74291193e-01 -1.25221029e-01
      -2.71582566e-02 1.70331616e-02 5.87688804e-01 5.76194609e-03
      -3.64458293e-01 -2.17563450e-01 1.17740117e-01 2.15057626e-01
      1.63435072e-01 1.51502043e-01 4.06771988e-01 -2.10032240e-02
      -3.70680362e-01 6.63885102e-02 9.87918794e-01 3.26366544e-01
      3.04365277e-01 1.69012472e-01 3.31402540e-01 5.00312448e-01
      -3.46835524e-01 -2.68479556e-01 -1.35796890e-01 3.94722596e-02
      -1.33107439e-01 2.62595981e-01 1.79221883e-01 -2.95677960e-01
      -1.32235289e-01 -2.66728699e-01 -7.56536603e-01 -2.43812948e-01
      3.30286682e-01 4.12006557e-01 7.26888537e-01 3.52477759e-01
      1.35160595e-01 -4.11909163e-01 -5.23151577e-01 -1.18648207e+00
      -1.39509201e-01 1.52241454e-01 4.18157242e-02 4.76489276e-01
      7.37322092e-01 -3.72624785e-01 -1.64797917e-01 -1.33611470e-01
      2.58417368e-01 -2.74723649e-01 -1.04047239e-01 -5.15173852e-01
      -9.26619023e-02 6.65712416e-01 3.60349834e-01 9.02273715e-01
      1.10902262e+00 3.10406923e-01 4.04593855e-01 7.00228870e-01
      -1.01836920e-01 7.92732611e-02 7.24066198e-01 -2.12414667e-01
      -1.12342453e-02 -3.88560712e-01 -1.02119809e-02 -3.69843394e-01
      9.08938870e-02 3.67110878e-01 2.49782935e-01 6.16317809e-01
      3.63225192e-01 6.76663756e-01 1.77801281e-01 -3.41094702e-01
      7.03376532e-02 2.25355208e-01 -2.34984338e-01 -1.46838475e-03
      2.57949948e-01 -2.88055353e-02 -1.20836347e-01 2.35434711e-01
      -3.84860039e-01 5.02034068e-01 -3.95531841e-02 -2.38829836e-01
      -3.97312939e-01 -1.67794470e-02 1.44721448e-01 2.78073967e-01
      5.79726517e-01 1.59260511e-01 -1.34974718e-01 -8.33413526e-02
      3.38859856e-01 1.04709812e-01 -4.89444554e-01 6.34411871e-01
      6.29804492e-01 4.20894980e-01 -5.89594305e-01 -2.25145862e-01
      -5.87081671e-01 -7.90884852e-01 -8.32183063e-01 1.08165532e-01
      -3.10716964e-02 -4.71111462e-02 1.68850258e-01 -1.98387235e-01
      5.66507399e-01 -5.65349102e-01 -4.59731609e-01 -6.63143516e-01
      4.56392229e-01 2.93488234e-01 -1.45472452e-01 1.27094269e-01
      -2.68258065e-01 -4.78816926e-01 -2.01266125e-01 -1.67596266e-01
      4.11533743e-01 2.18488127e-01 2.01669633e-01 1.10774986e-01
      -2.73208916e-01 -3.46285969e-01 -4.33485329e-01 3.08189858e-02
      3.58741909e-01 6.94650054e-01 1.79884315e-01 1.42320991e-01
      -1.46706924e-01 1.67711616e-01 -3.09315205e-01 2.27336988e-01
      1.26942709e-01 1.23137206e-01 -4.23988849e-02 -5.82406461e-01
      -2.67206043e-01 -2.22866490e-01 -2.34230414e-01 5.12860045e-02
      -2.41488498e-02 1.86342776e-01 1.18115708e-01 -4.21401739e-01
      -1.39172167e-01 -1.59802645e-01 3.03865731e-01 -3.12164962e-01
      -6.92563295e-01 -1.68092862e-01 2.67535090e-01 1.40798882e-01
      1.60928145e-01 -1.35565892e-01 4.68487442e-01 3.99227858e-01
      -5.39818406e-01 -2.88919479e-01 9.03940350e-02 1.49856046e-01
      2.26224095e-01 2.30943263e-01 1.96378883e-02 -2.30423346e-01
      -2.40625083e-01 1.19364657e-01 2.75452025e-02 -8.49981964e-01
      -4.67819534e-02 -1.27612855e-02 3.91442716e-01 4.27843817e-02
      -5.43881804e-02 1.77943841e-01 2.76900917e-01 5.38337529e-01
      7.31269941e-02 4.47717905e-02 -7.08307922e-02 3.70416075e-01
      1.06989957e-01 -2.50476431e-02 -4.40751106e-01 -5.67208976e-02
      1.11895375e-01 -3.13955247e-02 4.27987009e-01 1.06826991e-01
      3.98878694e-01 8.21624026e-02 6.23293698e-01 2.74781674e-01
      9.70854387e-02 -5.26035428e-01 4.71166730e-01 5.20665467e-01
      6.34764731e-01 3.27561855e-01 3.61035615e-02 5.10299690e-02
      -4.23796654e-01 1.50394633e-01 5.63882291e-01 -5.71241677e-01
      -9.01092231e-01 -6.72363460e-01 1.98764086e-01 -2.84270734e-01
      2.19562709e-01 -3.51385534e-01 3.73488069e-01 4.06471819e-01
      5.11560321e-01 -4.73013163e-01 -7.77199209e-01 -5.99481285e-01
      4.02523875e-01 -4.39097621e-02 4.69151959e-02 -1.93119913e-01
      -5.85394323e-01 -2.53066123e-01 3.31227332e-01 1.82322189e-01
      4.76993591e-01 5.35798907e-01 4.57040042e-01 2.57332921e-01
      -1.95672199e-01 -4.00282234e-01 -4.69452798e-01 2.17574671e-01
      1.35170981e-01 1.30444452e-01 -3.35605949e-01 -7.28295505e-01
      1.71250448e-01 3.38212818e-01 -5.38430870e-01 -3.08373757e-02
      -2.85848260e-01 -5.51377118e-01 -3.21486712e-01 1.24135159e-01
      -2.18908086e-01 -3.05840839e-03 1.49384648e-01 1.68102786e-01
      -3.50044370e-01 -1.26494244e-01 -4.16130573e-01 -4.43506300e-01
      3.57543439e-01 -1.37826979e-01 -1.60888687e-01 -2.23943114e-01
      2.37079918e-01 -1.22053474e-01 -7.10236788e-01 -7.03817531e-02
      3.15273613e-01 1.44320592e-01 -1.38033926e-01 -2.15689644e-01
      -2.50891775e-01 -1.66300222e-01 -2.18891069e-01 1.75637603e-01
      1.80691540e-01 3.82499784e-01 2.60441989e-01 -2.06826881e-01
      -6.76510513e-01 -4.14628416e-01 -6.57478720e-03 -5.13315737e-01
      -7.85746574e-01 9.70484167e-02 1.64843976e-01 4.97605978e-03
      -3.77378494e-01 -3.17813545e-01 -1.86441332e-01 -1.90499797e-01
      -3.74224707e-02 -4.64293696e-02 -2.28055164e-01 -3.50161158e-02
      4.99940187e-01 9.58652794e-02 4.41886991e-01 -2.44982019e-02
      -3.17229837e-01 -4.67401236e-01 -4.90427911e-01 -4.04834986e-01
      -9.66628715e-02 4.24747616e-01 -1.77524853e-02 2.45512664e-01
      -7.77048431e-03 5.92637718e-01 9.41060036e-02 8.66579416e-04
      -2.11055323e-01 -4.03842404e-02 5.25028408e-01 -1.48732290e-01
      4.43114609e-01 -2.49374639e-02 -1.38312787e-01 -5.07348180e-01
      -3.19087267e-01 -7.00267911e-01 -6.97704181e-02 1.67946965e-01
      9.70926657e-02 5.78901581e-02 3.60764652e-01 6.49116874e-01
      -2.83825397e-01 -4.85088885e-01 -5.37594974e-01 -7.13342950e-02
      -4.62171346e-01 -4.09338683e-01 -5.42021513e-01 2.46186517e-02
      9.22018230e-01 5.41871428e-01 5.79952002e-01 3.68934423e-01
      3.17649007e-01 -3.02220166e-01 -3.63755792e-01 -1.47486031e-01
      3.95271987e-01 7.17611372e-01 4.58579153e-01 6.12971224e-02
      3.16895843e-01 3.41869205e-01 1.60758823e-01 -4.49868757e-03
      -9.94972736e-02 1.76125482e-01 3.40154409e-01 4.89525162e-02
      -1.98045924e-01 -5.08971095e-01 -2.68727452e-01 -2.97386855e-01
      -6.00530915e-02 -4.25479323e-01 6.29914582e-01 1.92288291e-02
      -9.03895497e-02 -4.08182532e-01 -3.71579498e-01 2.61828005e-01
      3.00573885e-01 3.85294765e-01 -2.99702317e-01 -5.18097021e-02
      -7.03316778e-02 3.25762540e-01 -1.70986168e-02 -4.57116991e-01
      2.04309389e-01 -3.33918691e-01 7.26327226e-02 9.24036875e-02
      8.19579884e-02 2.02732623e-01 6.39520884e-01 2.83184648e-01
      -4.92759973e-01 -2.24069610e-01 -8.77604112e-02 -9.16964471e-01
      -4.64192659e-01 4.18076128e-01 -6.05436042e-02 5.00000060e-01
      4.97307777e-01 -3.36941262e-03 -8.26300532e-02 -3.67574364e-01
      -4.57421057e-02 2.15073615e-01 5.28591096e-01 1.15479663e-01
      2.91323751e-01 -8.29327926e-02 -2.98393756e-01 -2.94877112e-01
      1.47915542e-01 9.38380808e-02 2.80824393e-01 -7.10419595e-01
      6.71118736e-01 9.56907421e-02 1.41555578e-01 3.27666640e-01
      5.77138901e-01 -5.53657055e-01 -2.70974219e-01 3.40241075e-01
      -3.69274944e-01 2.19440296e-01 -2.27810606e-01 3.73388946e-01
      4.68637258e-01 1.24756165e-01 -2.30376214e-01 -3.65562737e-01
      -1.57238662e-01 -3.34699512e-01 1.93113107e-02 -5.25103331e-01
      -1.38073996e-01 5.11126578e-01 4.59508210e-01 -6.71161234e-01
      -3.08706939e-01 3.19132470e-02 3.47455412e-01 -2.61595733e-02
      -1.15412705e-01 1.77388549e-01 2.71945775e-01 -1.23295046e-01</_></support_vectors>
  <uncompressed_sv_total>221</uncompressed_sv_total>
  <uncompressed_support_vectors>
    <_>
      7.70638231e-03 1.82252713e-02 1.03780977e-01 3.34945023e-01
      3.26741368e-01 8.06457847e-02 3.32417823e-02 1.06210094e-02
      4.95678233e-03 1.25274342e-03 1.13326460e-02 2.45727301e-01
      3.34945023e-01 3.34945023e-01 3.35542038e-02 1.58960384e-03
      7.17420044e-05 0. 6.92780502e-03 7.13367201e-03 6.78369105e-02
      3.34945023e-01 3.34945023e-01 5.25532849e-02 2.58606188e-02
      1.13221537e-02 5.41916350e-03 6.73613336e-04 7.75509747e-03
      1.22947715e-01 3.34945023e-01 3.34945023e-01 2.35838201e-02
      2.37264833e-03 6.03470951e-04 3.16334888e-04 5.92316277e-02
      9.51595604e-02 1.14998043e-01 1.70755684e-01 2.64784694e-01
      2.38899499e-01 1.26191795e-01 8.59597251e-02 7.46745691e-02
      1.15776613e-01 1.34416416e-01 1.51714727e-01 2.57162958e-01
      2.64784694e-01 2.64050543e-01 8.22712183e-02 1.26246795e-01
      1.53068230e-01 3.50689404e-02 7.92558715e-02 1.49397954e-01
      2.59694070e-01 2.64784694e-01 2.42203400e-01 1.28813162e-01
      3.37022468e-02 1.79240461e-02 5.96022680e-02 7.97173604e-02
      1.24739565e-01 2.64784694e-01 2.64784694e-01 2.26209581e-01
      1.13296039e-01 5.95300943e-02 4.90597077e-02 1.12607162e-02
      1.46721043e-02 1.32342419e-02 2.39372738e-02 1.56216517e-01
      3.41776580e-01 3.41776580e-01 6.67509735e-02 1.91891007e-02
      3.92276514e-03 5.82331233e-03 2.88924761e-03 1.77828837e-02
      2.13061765e-01 3.41776580e-01 2.58339584e-01 4.45096120e-02
      1.15821371e-02 1.60098188e-02 2.42235754e-02 2.21218374e-02
      4.78511527e-02 2.57641405e-01 3.41776580e-01 2.11904377e-01
      4.99557145e-02 1.91319324e-02 5.19139413e-03 9.09641292e-03
      8.12195428e-03 2.12780107e-02 3.41776580e-01 3.41776580e-01
      1.77865833e-01 2.55607329e-02 9.58029740e-03 2.91942507e-01
      1.60285920e-01 1.04728661e-01 1.08132727e-01 1.08075291e-01
      1.04459651e-01 1.28745750e-01 1.41939536e-01 2.91942507e-01
      2.91942507e-01 1.47685200e-01 8.61064866e-02 1.50495425e-01
      1.88583016e-01 1.28274679e-01 1.17294759e-01 1.73719376e-01
      2.91942507e-01 1.29507139e-01 1.04191363e-01 8.95129144e-02
      1.38890669e-01 2.62511492e-01 1.52143940e-01 9.54277813e-02
      7.38278553e-02 8.92260671e-02 1.68909922e-01 1.11125231e-01
      1.75482124e-01 2.19619483e-01 2.58759171e-01 1.13586448e-01
      8.00089538e-02 8.13209116e-02 1.35563284e-01 3.38160992e-03
      4.09458485e-03 1.04996311e-02 2.46236145e-01 3.61956269e-01
      2.31194317e-01 4.40677516e-02 7.71920895e-03 2.62468029e-03
      1.36771798e-02 6.68668188e-03 6.54911296e-03 1.78248391e-01
      3.61956269e-01 1.95037842e-01 5.40692434e-02 3.51590030e-02
      1.36801088e-02 5.07375924e-03 6.56275591e-03 1.66279078e-02
      1.10604838e-01 3.61956269e-01 3.61956269e-01 4.05226536e-02
      5.92823466e-03 3.48427566e-03 1.61990449e-02 4.72496962e-03
      6.54092431e-03 8.66267532e-02 3.61956269e-01 3.54101837e-01
      4.25738469e-02 3.05161159e-02 2.06552781e-02 5.50947338e-02
      7.77315274e-02 1.48931623e-01 2.39575177e-01 3.07719409e-01
      2.12504178e-01 6.02351837e-02 3.66882421e-02 6.79364726e-02
      6.40715137e-02 7.70510212e-02 1.00716002e-01 2.12216347e-01
      3.07719409e-01 1.80125192e-01 6.75471872e-02 7.73900002e-02
      8.69080722e-02 5.40520959e-02 6.14822619e-02 9.27089229e-02
      1.65954411e-01 3.07719409e-01 3.07719409e-01 1.39645517e-01
      4.68559340e-02 4.44353670e-02 8.60952809e-02 1.00377806e-01
      1.02139316e-01 1.80644423e-01 3.07719409e-01 3.07719409e-01
      1.46869346e-01 9.32692289e-02 1.10783748e-01 2.45408341e-02
      2.98175476e-02 3.28956097e-02 1.27648622e-01 3.32635492e-01
      1.66021928e-01 3.79024446e-02 2.52421573e-02 2.90183909e-02
      1.36455400e-02 1.29650841e-02 1.62097812e-02 1.69420406e-01
      3.93373102e-01 3.29584330e-01 2.19515935e-02 1.08004734e-02
      1.51758716e-02 4.10900488e-02 6.36021718e-02 6.91252127e-02
      2.14981467e-01 3.40414077e-01 1.25273153e-01 5.56360148e-02
      3.34423818e-02 4.64788824e-02 1.54551351e-02 2.66385116e-02
      5.14132157e-02 3.93373102e-01 3.93373102e-01 1.80096120e-01
      3.76517922e-02 1.49939228e-02 2.69846022e-02 3.96802425e-02
      4.90923822e-02 1.11275323e-01 2.54556566e-01 3.27738225e-01
      1.84716970e-01 1.50214121e-01 5.04875742e-02 3.72946933e-02
      6.63246736e-02 5.09001128e-02 1.03135727e-01 1.19865589e-01
      3.27738225e-01 1.18651457e-01 1.72995150e-01 5.79293258e-02
      7.07411319e-02 9.52214152e-02 9.77566391e-02 1.81417882e-01
      3.12167585e-01 3.27738225e-01 1.27776906e-01 9.58482847e-02
      4.86379378e-02 8.42938498e-02 1.38960779e-01 1.18386298e-01
      1.73479244e-01 2.11833447e-01 2.92756408e-01 1.34849638e-01
      1.34619176e-01 1.01141423e-01 1.54375255e-01 4.75518359e-03
      1.22692185e-02 9.56563056e-02 1.22781269e-01 2.99806714e-01
      3.54602426e-01 1.22444913e-01 2.32204422e-02 1.16461907e-02
      1.76967296e-03 3.52662080e-03 1.37089482e-02 2.18497701e-02
      2.90337682e-01 3.54602426e-01 2.22055599e-01 1.70037746e-02
      6.41413173e-03 5.75161120e-03 6.65569538e-03 5.12094125e-02
      1.25553265e-01 1.69856846e-01 3.54602426e-01 1.63656920e-01
      3.73902991e-02 2.36205012e-02 4.26112395e-03 4.25863732e-03
      1.30631765e-02 4.79196571e-02 1.47558853e-01 3.54602426e-01
      3.54602426e-01 5.17895333e-02 1.27890129e-02 1.09661661e-01
      8.32969844e-02 8.41382816e-02 1.18130669e-01 2.56220162e-01
      2.32344896e-01 1.21742748e-01 1.63785592e-01 1.57197028e-01
      8.37570727e-02 7.46235400e-02 9.43213478e-02 1.30740315e-01
      2.60309666e-01 2.60309666e-01 2.06072152e-01 2.12159634e-01
      1.45949364e-01 1.57124504e-01 1.21304117e-01 9.83671397e-02
      1.25918478e-01 1.60498589e-01 2.09083289e-01 2.27794543e-01
      1.69647664e-01 1.37115926e-01 1.06481522e-01 8.84279087e-02
      1.10579662e-01 1.65058553e-01 1.79480001e-01 2.08259106e-01
      2.35647351e-01 2.09368020e-01 1.45169690e-01 2.05961801e-02
      4.91697639e-02 2.85881341e-01 3.25649917e-01 1.94037259e-01
      5.94535731e-02 1.87511016e-02 2.67363526e-02 2.83253863e-02
      7.38846371e-03 2.45156493e-02 2.46815890e-01 3.25649917e-01
      3.25649917e-01 5.34344502e-02 9.71388537e-03 7.42885331e-03
      8.45757034e-03 2.82873902e-02 1.15793318e-01 3.25649917e-01
      3.25649917e-01 1.24014787e-01 2.02102587e-02 1.10762147e-02
      8.08030833e-03 1.59713905e-02 1.77591182e-02 6.34762868e-02
      3.12652558e-01 3.25649917e-01 1.86238244e-01 2.93613505e-02
      4.90976125e-03 6.49151742e-04 8.83270986e-03 2.36642614e-01
      2.70851552e-01 9.74032804e-02 4.02986817e-02 4.71242629e-02
      2.66548321e-02 4.77836877e-02 7.67671466e-02 1.30549133e-01
      2.92187542e-01 2.92187542e-01 1.12472527e-01 4.11636010e-02
      3.85372341e-02 1.19771510e-02 3.44288014e-02 4.69622687e-02
      1.06191248e-01 2.92187542e-01 2.92187542e-01 1.76701188e-01
      5.56124188e-02 7.85672572e-03 2.82020657e-03 1.28184408e-02
      1.23002872e-01 2.81507492e-01 2.92187542e-01 2.92187542e-01
      1.98104531e-01 1.03299506e-01 6.27008826e-02 4.03485671e-02
      1.39956594e-01 1.70544550e-01 2.29130536e-01 7.18740821e-02
      6.87696189e-02 7.54491761e-02 1.07134387e-01 2.04793558e-01
      1.77806124e-01 1.70230374e-01 1.40107676e-01 8.39676559e-02
      4.38043736e-02 2.75576394e-02 1.33089125e-01 1.42294094e-01
      2.13479117e-01 2.54238427e-01 2.54238427e-01 2.54238427e-01
      1.14500716e-01 3.21766883e-02 6.38118386e-02 1.56585127e-01
      1.91604435e-01 2.54238427e-01 2.43209228e-01 1.86817810e-01
      9.25138220e-02 3.55583243e-02 5.37840798e-02 5.40894754e-02
      1.09797284e-01 1.84320927e-01 2.42492810e-01 2.54238427e-01
      2.54238427e-01 2.54238427e-01 9.23719257e-02 2.12973565e-01
      5.15226871e-02 3.31695154e-02 4.46852557e-02 6.35826215e-02
      5.08977026e-02 1.71895996e-01 2.68163830e-01 2.68163830e-01
      2.68163830e-01 1.28983185e-01 4.40050848e-02 2.62450427e-02
      2.63840202e-02 2.02060360e-02 3.51175815e-02 1.49783030e-01
      2.68163830e-01 2.34852433e-01 1.32508114e-01 9.99952182e-02
      1.75618246e-01 2.48617604e-01 1.51066333e-01 1.32789150e-01
      2.27216661e-01 2.56378949e-01 2.68163830e-01 1.71757877e-01
      1.23445615e-01 1.00902982e-01 1.22548327e-01 1.00630209e-01
      7.75268897e-02 1.23574786e-01 2.68163830e-01 1.61653325e-01
      2.76374072e-01 2.76374072e-01 2.76374072e-01 1.46527201e-01
      2.11661384e-02 1.40872728e-02 3.72733101e-02 5.80677800e-02
      1.12744793e-01 2.60579914e-01 2.76374072e-01 2.76374072e-01
      1.51028693e-01 2.70781144e-02 1.32673411e-02 4.94237877e-02
      7.38655254e-02 2.14460075e-01 2.11915150e-01 2.00898811e-01
      1.97453886e-01 1.75877720e-01 6.01625778e-02 4.13562134e-02
      9.42802057e-02 1.65269271e-01 2.18970865e-01 1.56728208e-01
      1.38186783e-01 1.49998814e-01 1.59371704e-01 8.87590200e-02
      9.53624323e-02 1.48869336e-01 1.69495359e-01 1.13877669e-01
      1.66679189e-01 2.00545460e-01 2.46294260e-01 1.46052718e-01
      1.01273999e-01 9.25449207e-02 8.94748867e-02 1.28395543e-01
      2.16959476e-01 2.25659654e-01 2.14648828e-01 2.46294260e-01
      1.67844832e-01 9.57464129e-02 9.45214927e-02 1.15079723e-01
      2.35578164e-01 9.57774073e-02 1.58147737e-01 2.46294260e-01
      1.71700224e-01 1.36649668e-01 1.05149031e-01 1.01411164e-01
      8.92513171e-02 1.22599050e-01 1.96870044e-01 1.96726829e-01
      1.88926935e-01 1.42314509e-01 1.69552565e-01 1.00582957e-01
      1.39726505e-01 1.78133905e-01 2.46294260e-01</_>
    <_>
      1.39375791e-01 1.29770622e-01 1.26725614e-01 1.90795466e-01
      2.66250372e-01 1.91909462e-01 1.33663058e-01 8.97153243e-02
      1.42267779e-01 1.55886129e-01 1.35868594e-01 2.08199456e-01
      2.56356776e-01 2.66250372e-01 1.37409449e-01 7.37710744e-02
      7.07290918e-02 1.06069945e-01 3.59877981e-02 7.51596913e-02
      1.35221422e-01 2.66250372e-01 2.66250372e-01 2.57703453e-01
      1.68087423e-01 4.57295440e-02 2.61952560e-02 8.00750479e-02
      8.13435838e-02 1.13163538e-01 2.52556294e-01 2.66250372e-01
      2.04187319e-01 1.29864469e-01 7.10406303e-02 5.36916927e-02
      7.66469771e-03 7.73019297e-03 9.47291218e-03 2.93031409e-02
      1.46937951e-01 3.51395875e-01 3.51395875e-01 5.58736101e-02
      1.53653873e-02 5.28377434e-03 4.85007931e-03 5.50275203e-03
      2.53702533e-02 2.14171082e-01 3.51395875e-01 1.95732489e-01
      3.01812682e-02 1.15954680e-02 1.11399610e-02 2.19892096e-02
      2.17949841e-02 5.13963923e-02 2.89524198e-01 3.51395875e-01
      1.97132289e-01 5.29186465e-02 1.23333838e-02 2.92744627e-03
      9.07006208e-03 6.49386784e-03 2.33505163e-02 3.51395875e-01
      3.51395875e-01 1.15239672e-01 1.68475397e-02 6.59595802e-03
      3.01936686e-01 2.00108826e-01 1.41462550e-01 1.21240921e-01
      1.48782983e-01 6.85622096e-02 6.06444292e-02 1.44531354e-01
      3.05649400e-01 3.05649400e-01 1.12906575e-01 6.74017444e-02
      6.73184991e-02 1.04767740e-01 1.04991093e-01 1.26331449e-01
      2.34225273e-01 3.05649400e-01 1.12320997e-01 1.28999934e-01
      1.45368308e-01 1.78360298e-01 2.98185110e-01 9.95972976e-02
      6.81090057e-02 6.66353852e-02 9.81256068e-02 1.48165390e-01
      1.29430890e-01 1.40182912e-01 1.38143122e-01 1.99594826e-01
      1.31103367e-01 1.27752051e-01 1.03947617e-01 1.52900383e-01
      3.79140787e-02 3.66856195e-02 3.98754254e-02 6.43612742e-02
      9.83309895e-02 2.59349346e-01 2.59349346e-01 1.56932607e-01
      8.24568346e-02 1.09924003e-01 1.29652172e-01 1.77415952e-01
      1.96398124e-01 1.45001814e-01 2.16573671e-01 2.49684468e-01
      2.24502295e-01 1.71277776e-01 1.85225159e-02 1.22065451e-02
      3.17444466e-02 1.03894942e-01 2.05063954e-01 2.59349346e-01
      2.59349346e-01 9.75210220e-02 2.67685223e-02 4.80953343e-02
      8.18414763e-02 1.22371003e-01 2.37971932e-01 2.59349346e-01
      2.59349346e-01 2.46326998e-01 1.57570124e-01 6.76695332e-02
      3.57673019e-02 6.25099242e-02 1.38998538e-01 2.30074868e-01
      2.86316037e-01 2.86316037e-01 1.04551122e-01 4.71964516e-02
      4.91216294e-02 4.60090339e-02 1.07346378e-01 1.19600706e-01
      1.76591322e-01 2.86316037e-01 2.46951848e-01 1.30205229e-01
      5.52894957e-02 4.58864085e-02 4.04596440e-02 6.75282776e-02
      1.25344768e-01 1.42720923e-01 2.86316037e-01 2.86316037e-01
      1.86573431e-01 5.97721562e-02 3.32563221e-02 4.78567518e-02
      1.14819393e-01 1.53284103e-01 1.49161786e-01 2.86316037e-01
      2.86316037e-01 1.86642632e-01 9.25762951e-02 4.08268720e-02
      1.51323825e-02 2.36958023e-02 4.08128239e-02 1.25192881e-01
      3.81179810e-01 2.01457098e-01 4.32280898e-02 2.33422462e-02
      1.35496743e-02 2.55992007e-03 8.98760185e-03 1.97346210e-02
      1.21936113e-01 3.81179810e-01 2.83873320e-01 1.97165553e-02
      6.92817243e-03 1.98596739e-03 2.09626649e-02 3.93653549e-02
      7.23960921e-02 2.44246334e-01 3.81179810e-01 1.49076000e-01
      6.13367818e-02 3.74289639e-02 1.61472727e-02 4.16849833e-03
      1.68296285e-02 4.15182486e-02 3.65364790e-01 3.81179810e-01
      1.62318081e-01 2.63937805e-02 1.47713162e-02 2.54183845e-03
      4.46662679e-02 8.63779858e-02 1.16068274e-01 2.11307958e-01
      3.37560624e-01 1.66011840e-01 1.02831081e-01 4.30307165e-02
      3.75970863e-02 5.36597706e-02 1.01544522e-01 1.76940262e-01
      1.18574381e-01 3.37560624e-01 8.20596591e-02 9.21879932e-02
      4.78921756e-02 4.99558151e-02 9.93831679e-02 1.29256561e-01
      1.54558599e-01 2.58545578e-01 3.37560624e-01 2.03618169e-01
      1.21228673e-01 6.22286722e-02 7.23096952e-02 1.93417504e-01
      1.39840439e-01 2.16255903e-01 1.43604979e-01 3.37560624e-01
      8.81543458e-02 8.17690343e-02 7.08659589e-02 1.63919806e-01
      1.31531749e-02 1.13443667e-02 6.32561147e-02 2.13324234e-01
      2.80687511e-01 2.21791416e-01 1.31109610e-01 4.07333635e-02
      1.02713797e-02 1.27878431e-02 2.93389801e-02 1.66322365e-01
      2.80687511e-01 2.80687511e-01 2.80687511e-01 2.03692392e-01
      6.21728785e-02 1.44401724e-02 3.49302776e-02 7.76697174e-02
      1.54465824e-01 2.07556069e-01 2.80687511e-01 1.63129896e-01
      7.33301267e-02 1.88610777e-02 2.82778274e-02 4.81935702e-02
      1.25387654e-01 2.80687511e-01 2.80687511e-01 2.80687511e-01
      1.91052049e-01 1.03849910e-01 3.52025293e-02 2.82415934e-02
      1.30390465e-01 1.16865255e-01 1.44119948e-01 1.71285897e-01
      2.59350181e-01 1.78467244e-01 1.54350236e-01 1.20332949e-01
      1.09644823e-01 1.25260130e-01 1.10414051e-01 9.65100452e-02
      1.55266345e-01 2.23099068e-01 1.77963316e-01 2.09850639e-01
      2.17248470e-01 1.36502638e-01 1.72755510e-01 1.72382966e-01
      1.79722846e-01 1.82501912e-01 1.55772731e-01 1.57019719e-01
      1.23782314e-01 1.35200411e-01 1.42215163e-01 1.36842310e-01
      1.33870274e-01 1.38377741e-01 1.32801875e-01 1.97275937e-01
      1.77842855e-01 2.22600937e-01 2.32058570e-01 1.98221534e-01
      2.05829050e-02 5.13780229e-02 2.77951658e-01 3.37679058e-01
      2.41625652e-01 5.11018410e-02 1.76900048e-02 2.52790675e-02
      2.54959594e-02 8.84873886e-03 2.53486130e-02 2.02955633e-01
      3.37679058e-01 3.33984435e-01 4.77658473e-02 1.96288452e-02
      6.45724824e-03 6.98457845e-03 2.09264085e-02 8.38965923e-02
      3.37679058e-01 3.37679058e-01 1.24910645e-01 1.79878604e-02
      8.19174852e-03 7.32770842e-03 1.11743454e-02 1.60648786e-02
      6.05890304e-02 2.75566489e-01 3.37679058e-01 1.50069445e-01
      3.33942287e-02 1.08092641e-02 3.39859212e-03 8.93459097e-03
      2.87646085e-01 2.89811909e-01 9.01023000e-02 3.20808515e-02
      3.86569165e-02 2.53292862e-02 2.96023041e-02 7.14033917e-02
      1.11777045e-01 2.89811909e-01 2.89811909e-01 1.54714316e-01
      2.78866198e-02 2.30775680e-02 1.20315645e-02 1.71524566e-02
      4.25260887e-02 1.21224821e-01 2.89811909e-01 2.89811909e-01
      1.63408369e-01 4.78216894e-02 8.38339422e-03 8.82796291e-03
      1.84593573e-02 8.56265724e-02 2.05673501e-01 2.89811909e-01
      2.89811909e-01 2.12751776e-01 1.25955328e-01 9.30735767e-02
      4.70785126e-02 1.45324528e-01 1.63854986e-01 2.35369205e-01
      2.58925825e-01 2.58925825e-01 2.58925825e-01 2.58925825e-01
      7.13031963e-02 1.57635640e-02 2.56191241e-03 9.62759275e-03
      4.81566191e-02 2.00797185e-01 2.41300449e-01 2.58925825e-01
      2.58925825e-01 1.29738271e-01 5.05959541e-02 2.21029073e-02
      3.27039436e-02 9.58604068e-02 2.06397161e-01 2.58925825e-01
      2.58925825e-01 1.75204381e-01 1.51087910e-01 9.66169238e-02
      6.18978404e-02 5.40772565e-02 7.75346532e-02 2.36596376e-01
      1.95754513e-01 1.63455501e-01 1.52466774e-01 1.67138889e-01
      8.21459740e-02 5.22582009e-02 7.06656352e-02 1.40501305e-01
      2.65620083e-01 7.33939260e-02 3.56136262e-02 4.19192649e-02
      5.60393259e-02 3.22377086e-02 1.30243286e-01 2.65620083e-01
      2.65620083e-01 2.65620083e-01 1.82473898e-01 7.68131316e-02
      2.92888880e-02 2.34939139e-02 1.34943938e-02 3.48304473e-02
      1.10320233e-01 2.65620083e-01 2.65620083e-01 1.43211916e-01
      6.87200651e-02 2.14497119e-01 2.32133105e-01 1.31159604e-01
      1.32512257e-01 2.01880768e-01 2.27279752e-01 2.65620083e-01
      1.76702932e-01 1.10229336e-01 9.50727016e-02 1.25073925e-01
      8.90384540e-02 7.32105747e-02 1.24660060e-01 2.65620083e-01
      1.75886348e-01 2.72643805e-01 2.72643805e-01 2.72643805e-01
      1.04142442e-01 4.66349870e-02 3.93284671e-02 5.05760573e-02
      6.77467585e-02 1.49334401e-01 2.17343211e-01 2.72643805e-01
      2.72643805e-01 1.72141701e-01 3.57950144e-02 1.86186023e-02
      3.25583145e-02 7.19610900e-02 1.98684484e-01 1.90980449e-01
      2.35635012e-01 1.96111858e-01 8.60333443e-02 1.07692115e-01
      1.17197245e-01 1.37893870e-01 1.54577434e-01 2.38218561e-01
      1.57632336e-01 1.58953220e-01 1.48658365e-01 1.25637457e-01
      1.11680321e-01 1.05343245e-01 1.34378448e-01 1.84292436e-01
      1.50232181e-01 1.19635724e-01 1.86917290e-01 2.48061776e-01
      1.45951569e-01 8.45412537e-02 1.05306461e-01 1.26271307e-01
      1.53217345e-01 2.35775933e-01 1.82385117e-01 2.33345017e-01
      2.48061776e-01 1.31464466e-01 6.46460503e-02 8.13653544e-02
      1.11481503e-01 2.47062117e-01 1.36834800e-01 1.63630500e-01
      1.58738747e-01 2.05501333e-01 1.69637278e-01 1.06047779e-01
      1.14287838e-01 1.12495556e-01 1.53826430e-01 2.43261397e-01
      1.90963537e-01 1.43451005e-01 1.46647483e-01 1.59958214e-01
      8.28926787e-02 1.44465610e-01 1.54590905e-01 2.48061776e-01
      1.56647518e-01 1.10954612e-01 1.46135747e-01 1.33114055e-01
      9.99581292e-02 1.52335897e-01 2.38127202e-01 2.48445004e-01
      2.16531485e-01 1.65045485e-01 1.30449310e-01 7.96552077e-02
      1.55011669e-01 2.04865173e-01 2.30757028e-01 2.01640189e-01
      1.62904441e-01 1.56097353e-01 2.28938997e-01 1.32466197e-01
      1.16342016e-01 1.37025431e-01 1.66650355e-01 1.05641648e-01
      1.03976592e-01 2.04086319e-01 2.03487918e-01 1.17666073e-01
      8.90830010e-02 5.59445731e-02 2.00933084e-01 2.49456316e-01
      1.92566603e-01 1.45546168e-01 1.60275936e-01 1.22946694e-01</_>
    <_>
      1.35656506e-01 6.71327040e-02 6.97837099e-02 1.12186432e-01
      2.35224634e-01 1.65935561e-01 1.50185913e-01 1.58938915e-01
      1.58449292e-01 1.64328292e-01 1.83607876e-01 1.63943335e-01
      1.51871458e-01 1.48212686e-01 9.55568403e-02 1.34770125e-01
      1.53186470e-01 1.67244971e-01 1.60707712e-01 1.43439353e-01
      1.99407354e-01 1.92837358e-01 1.63941488e-01 2.35224634e-01
      2.17334956e-01 1.61035106e-01 1.41277015e-01 1.60315305e-01
      1.76906183e-01 2.35224634e-01 2.35224634e-01 1.36788130e-01
      1.49448931e-01 1.56909227e-01 1.65316954e-01 1.75500229e-01
      1.53964877e-01 1.67117193e-01 1.80737510e-01 1.93675265e-01
      1.44565329e-01 1.09425701e-01 1.01937450e-01 1.41899958e-01
      1.62782133e-01 1.91570908e-01 1.44419149e-01 1.78595006e-01
      1.49167791e-01 9.24744979e-02 1.07366249e-01 1.47099257e-01
      1.77907124e-01 2.16116205e-01 2.10866153e-01 1.61721304e-01
      2.43433639e-01 2.43433639e-01 1.36733890e-01 7.52015337e-02
      4.81507666e-02 1.49763063e-01 2.21425802e-01 2.10303396e-01
      1.76418915e-01 2.43433639e-01 2.43433639e-01 1.81729838e-01
      8.00333098e-02 3.42572667e-02 8.02740306e-02 1.60921887e-01
      2.79263109e-01 2.79263109e-01 2.21499875e-01 9.27847028e-02
      3.55569646e-02 1.99406762e-02 3.21288705e-02 5.07435724e-02
      1.72236815e-01 2.79263109e-01 1.70833617e-01 1.19621150e-01
      7.24315047e-02 5.36033586e-02 4.87285405e-02 6.08292669e-02
      1.21501759e-01 2.79263109e-01 2.79263109e-01 2.79263109e-01
      2.79263109e-01 1.45639226e-01 5.59094697e-02 2.63237841e-02
      2.38394625e-02 2.92594805e-02 1.05484240e-01 2.79263109e-01
      2.50086069e-01 1.11465655e-01 3.24372388e-02 3.03498600e-02
      1.44987032e-02 4.22736555e-02 1.17230907e-01 2.79263109e-01
      7.02577382e-02 5.59692904e-02 5.14380373e-02 1.19262546e-01
      1.72266841e-01 2.17376500e-01 2.84503758e-01 2.62346804e-01
      1.23827770e-01 5.40233999e-02 3.64796370e-02 5.54080792e-02
      1.47077501e-01 2.06863135e-01 1.80683449e-01 2.25657880e-01
      1.55139536e-01 6.81377277e-02 4.17496562e-02 2.53885873e-02
      1.53507851e-02 6.61280453e-02 1.56827718e-01 2.84503758e-01
      2.84503758e-01 2.84503758e-01 1.20457992e-01 8.59045163e-02
      3.43362577e-02 3.77211086e-02 1.16099082e-01 2.08662808e-01
      2.84503758e-01 2.57877499e-01 1.56067982e-01 1.35783255e-01
      1.81829527e-01 2.41118670e-01 2.63023674e-01 2.63023674e-01
      1.35153577e-01 2.35748179e-02 1.03250248e-02 1.26094921e-02
      8.49160776e-02 2.63023674e-01 2.63023674e-01 2.63023674e-01
      2.24930078e-01 5.95390126e-02 1.01995552e-02 3.30065517e-03
      1.96913257e-02 8.42721611e-02 1.13413021e-01 1.88011289e-01
      2.63023674e-01 2.63023674e-01 2.63023674e-01 7.04248548e-02
      1.95134543e-02 1.25296880e-02 5.51752634e-02 1.61235452e-01
      2.09653497e-01 2.63023674e-01 1.92809001e-01 1.47898152e-01
      5.65538034e-02 2.66561415e-02 3.30307111e-02 6.88737184e-02
      1.47862792e-01 2.06224039e-01 9.24511328e-02 8.34754407e-02
      7.98690096e-02 4.68121208e-02 6.87868968e-02 6.70874342e-02
      1.03031419e-01 1.02182850e-01 9.08188149e-02 1.77320600e-01
      4.24943537e-01 4.24943537e-01 8.14989284e-02 5.99860959e-02
      5.68847880e-02 6.87519535e-02 4.79619168e-02 5.77208921e-02
      7.03870654e-02 1.25966087e-01 1.67259350e-01 8.37862343e-02
      7.06196725e-02 4.27529365e-02 4.04941179e-02 3.61615233e-02
      2.69482210e-02 8.67299289e-02 4.24943537e-01 4.24943537e-01
      1.03219092e-01 6.03601038e-02 3.97509411e-02 3.80574614e-02
      1.38826981e-01 1.25605166e-01 2.51522720e-01 2.51522720e-01
      2.11479276e-01 1.25443757e-01 1.41443551e-01 1.40217200e-01
      1.49244994e-01 7.44228810e-02 5.89341819e-02 8.49851966e-02
      1.15625046e-01 2.39474356e-01 2.35045731e-01 1.91866666e-01
      1.34705499e-01 1.17151454e-01 1.53343976e-01 1.98752493e-01
      2.31006265e-01 2.51522720e-01 2.03439236e-01 1.46698058e-01
      1.40761018e-01 1.15041323e-01 1.24129757e-01 5.82608096e-02
      9.45108756e-02 1.41235650e-01 1.60849616e-01 2.51522720e-01
      2.41562128e-01 1.15843818e-01 8.99142995e-02 1.01743966e-01
      4.26344294e-03 7.12128030e-03 1.14846360e-02 2.13508606e-02
      2.24639475e-01 3.56084436e-01 1.44225761e-01 1.48728872e-02
      1.89834286e-03 5.19728847e-03 1.17641361e-02 6.56673610e-02
      8.02415684e-02 3.56084436e-01 3.56084436e-01 1.23724870e-01
      2.30992325e-02 1.01673221e-02 4.59383009e-03 6.53695315e-03
      1.37932235e-02 3.31405513e-02 3.47272456e-01 3.56084436e-01
      4.19620648e-02 6.45781029e-03 5.20697376e-03 3.53247160e-03
      1.11046312e-02 6.53812662e-02 8.10309201e-02 3.56084436e-01
      3.56084436e-01 4.17599194e-02 1.15554146e-02 4.98759048e-03
      3.63176465e-02 5.01787178e-02 9.09288451e-02 1.73804790e-01
      2.87269562e-01 2.87269562e-01 2.11973086e-01 6.33779019e-02
      4.53173630e-02 2.29004845e-02 2.71656830e-02 9.72884893e-02
      1.60710022e-01 2.25120291e-01 2.12823018e-01 1.15084261e-01
      3.29166725e-02 2.81265303e-02 6.72183186e-02 4.69424315e-02
      9.11295190e-02 2.17466339e-01 2.87269562e-01 2.87269562e-01
      2.87269562e-01 1.40143603e-01 9.69975144e-02 6.02685846e-02
      3.19467224e-02 4.30863872e-02 7.69042298e-02 2.49167874e-01
      2.87269562e-01 2.87269562e-01 9.68886092e-02 5.68984896e-02
      2.66474914e-02 3.70906740e-02 5.25208749e-02 9.70488489e-02
      1.91071868e-01 1.35808975e-01 7.50763267e-02 3.27186584e-02
      2.20915359e-02 1.18363174e-02 3.15977409e-02 3.89718600e-02
      9.92977619e-02 4.49116796e-01 4.49116796e-01 9.83576328e-02
      2.38173399e-02 9.53686144e-03 4.05068137e-02 7.13831633e-02
      8.00585747e-02 9.53004807e-02 1.32548377e-01 7.66121671e-02
      4.14318964e-02 2.58479454e-02 3.37155573e-02 2.79462375e-02
      6.63323924e-02 4.96013910e-02 1.06139936e-01 4.49116796e-01
      4.49116796e-01 1.37851432e-01 4.14094403e-02 2.48473566e-02
      5.99828772e-02 8.26209560e-02 1.08092614e-01 1.58043578e-01
      1.92357033e-01 2.78850555e-01 2.40428269e-01 9.28324759e-02
      5.22448570e-02 2.71068495e-02 4.20821905e-02 7.49271140e-02
      1.32799178e-01 2.54339874e-01 2.20279768e-01 1.99888185e-01
      6.54505640e-02 2.50049755e-02 1.06471099e-01 9.63391364e-02
      1.15706265e-01 1.89192370e-01 2.78850555e-01 2.78850555e-01
      2.78850555e-01 1.51616365e-01 1.04753964e-01 6.71342835e-02
      7.58910254e-02 1.11643955e-01 2.22271845e-01 2.78850555e-01
      2.44728893e-01 1.68888435e-01 6.31734058e-02 5.52403182e-02
      1.34593341e-02 1.98210850e-02 3.96306030e-02 2.94568419e-01
      3.34696412e-01 4.45369035e-02 2.03431565e-02 1.27904080e-02
      1.01330578e-02 9.20042396e-03 1.98294464e-02 6.55804202e-02
      3.67962539e-01 3.67962539e-01 9.48653519e-02 3.27606946e-02
      1.24812601e-02 4.80044447e-03 8.69057514e-03 1.47536127e-02
      1.18806399e-01 3.67962539e-01 2.63202339e-01 1.89067386e-02
      7.39528472e-03 6.10318128e-03 6.21361099e-03 7.88612384e-03
      1.32807922e-02 1.08118042e-01 3.67962539e-01 3.67962539e-01
      6.48641065e-02 1.76866241e-02 6.97410339e-03 6.51903450e-03
      1.03011630e-01 1.05746806e-01 1.00478806e-01 2.11080268e-01
      2.35793754e-01 1.65060222e-01 1.62156820e-01 1.39321655e-01
      1.54916927e-01 2.23405048e-01 1.42322868e-01 9.21349600e-02
      1.37606114e-01 1.46175444e-01 1.25235617e-01 1.89959139e-01
      2.35793754e-01 2.35793754e-01 1.14943869e-01 1.87525526e-01
      1.63421646e-01 1.72228068e-01 2.09120542e-01 1.60703033e-01
      1.37572035e-01 1.35710508e-01 1.26296982e-01 1.25914186e-01
      1.44582748e-01 1.37109011e-01 2.31690988e-01 2.35793754e-01
      1.52053118e-01 1.52464539e-01 1.53085336e-01 1.56498626e-01
      2.56315559e-01 1.44223422e-01 1.04722627e-01 8.26112926e-02
      4.61020656e-02 7.05700517e-02 1.24145851e-01 2.02378452e-01
      2.56315559e-01 2.56315559e-01 8.77945498e-02 4.80609499e-02
      3.35530825e-02 4.79873233e-02 1.62896290e-01 2.21528038e-01
      2.56315559e-01 2.56315559e-01 1.96591288e-01 1.60034508e-01
      1.49902672e-01 1.52648479e-01 1.57722577e-01 1.54339641e-01
      1.68427825e-01 1.29929304e-01 1.36820540e-01 1.47709772e-01
      1.30596310e-01 1.00682124e-01 9.24856067e-02 1.53216511e-01
      2.33207896e-01 2.48738870e-01 1.78470075e-01 1.61187470e-01
      7.82888606e-02 3.05721983e-02 2.19223704e-02 1.14774946e-02
      1.40204094e-02 1.14211299e-01 2.85731763e-01 2.85731763e-01
      2.56463170e-01 2.32809305e-01 9.85928550e-02 6.59601390e-02
      2.35034190e-02 1.65061485e-02 2.88817659e-02 9.43977609e-02
      2.85731763e-01 2.85731763e-01 1.22916929e-01 5.11782505e-02
      2.05669552e-02 1.09688826e-02 1.14013525e-02 4.85963486e-02
      2.28978246e-01 2.85731763e-01 2.85731763e-01 2.85731763e-01
      1.24223150e-01 2.68835630e-02 9.19595826e-03 6.23277016e-03
      1.63888149e-02 8.41997787e-02 2.85731763e-01 2.85731763e-01
      7.31504187e-02 3.09724987e-01 3.09724987e-01 3.09724987e-01
      1.22053750e-01 4.11352329e-02 1.44775724e-02 1.09389713e-02
      1.92293748e-02 8.57816041e-02 1.85796738e-01 3.09724987e-01
      2.50566632e-01 1.52999267e-01 9.82378870e-02 5.11660613e-02
      3.18257995e-02 4.86896858e-02 7.84283727e-02 2.43402973e-01
      3.09724987e-01 2.50866234e-01 2.53252804e-01 1.84932992e-01
      6.30117357e-02 4.42457497e-02 3.68898138e-02 8.36093575e-02
      8.95882398e-02 1.26526132e-01 1.21974178e-01 1.47811159e-01
      1.50881767e-01 1.08640097e-01 9.65796709e-02 7.27436543e-02</_>
    <_>
      5.13947979e-02 4.42202315e-02 1.27338171e-01 1.88541710e-01
      3.09251636e-01 1.94946125e-01 7.96303228e-02 4.09971811e-02
      4.58152816e-02 1.02339983e-01 7.67904297e-02 1.62650391e-01
      2.38761768e-01 3.09251636e-01 1.53011069e-01 9.16713402e-02
      7.49108046e-02 8.11710358e-02 5.40680848e-02 5.52201197e-02
      1.93172336e-01 2.89151251e-01 3.09251636e-01 1.82666078e-01
      6.45914376e-02 8.10837001e-02 7.23576993e-02 9.95136425e-02
      9.61317867e-02 2.10982695e-01 2.96830297e-01 3.09251636e-01
      1.49067432e-01 8.41537416e-02 6.32033199e-02 6.87046126e-02
      1.14839096e-02 1.51793398e-02 1.66712683e-02 4.03139368e-02
      1.75465032e-01 3.48705202e-01 3.27139944e-01 3.05975154e-02
      1.64822023e-02 4.37986897e-03 8.98715481e-03 3.30314063e-03
      3.18293385e-02 2.54245549e-01 3.48705202e-01 2.56842345e-01
      1.49710663e-02 4.56191367e-03 1.27626834e-02 1.55801186e-02
      2.05906294e-02 5.19792847e-02 2.66572267e-01 3.48705202e-01
      1.42238542e-01 1.68751664e-02 1.06865820e-02 1.48926151e-03
      2.93461932e-03 3.42071406e-03 3.54968980e-02 3.48705202e-01
      3.48705202e-01 1.36308253e-01 1.36591243e-02 2.79294723e-03
      2.29468137e-01 2.54990935e-01 1.67672947e-01 1.16585582e-01
      1.47479221e-01 8.82646963e-02 9.82397869e-02 7.89699480e-02
      1.35301888e-01 2.42575333e-01 2.20057562e-01 1.57206014e-01
      1.26334041e-01 1.42136276e-01 8.92721713e-02 1.33337215e-01
      1.78900316e-01 2.68306226e-01 1.17113702e-01 1.22455485e-01
      1.46838039e-01 2.05232456e-01 2.79535145e-01 1.65479466e-01
      1.26190767e-01 1.09717704e-01 9.29066390e-02 1.52392372e-01
      1.15633428e-01 1.36551067e-01 1.77210212e-01 2.49744311e-01
      9.42080691e-02 1.38622075e-01 1.69048414e-01 1.89757720e-01
      4.27107736e-02 9.00641736e-03 2.33466853e-03 3.36148180e-02
      1.45713881e-01 2.84817606e-01 2.97012001e-01 1.85073942e-01
      6.40546307e-02 5.29275350e-02 3.90427336e-02 4.53806296e-02
      1.42247647e-01 2.97012001e-01 2.97012001e-01 2.56127387e-01
      2.11438879e-01 1.29967228e-01 1.16387075e-02 9.08928178e-03
      8.39468557e-03 5.65714091e-02 2.97012001e-01 2.97012001e-01
      1.47949934e-01 6.44361749e-02 1.62797105e-02 1.91474706e-02
      8.87995213e-03 2.27854829e-02 1.89484224e-01 2.97012001e-01
      2.97012001e-01 1.11989237e-01 4.42277789e-02 2.80913655e-02
      4.55092192e-02 5.72127067e-02 1.06618948e-01 1.32957876e-01
      3.09642345e-01 2.43191078e-01 9.70364064e-02 1.03068084e-01
      7.36923739e-02 6.60594404e-02 9.91391093e-02 1.06984138e-01
      1.31697893e-01 3.09642345e-01 1.82046726e-01 1.29639149e-01
      1.31613955e-01 7.39374682e-02 6.92576542e-02 5.60819693e-02
      9.90284085e-02 1.33778319e-01 3.09642345e-01 2.33609170e-01
      2.09412470e-01 2.24063054e-01 1.15372628e-01 7.59267360e-02
      1.10440232e-01 1.09050095e-01 1.62181124e-01 2.75467217e-01
      1.59552470e-01 2.27059096e-01 2.39573568e-01 1.02551892e-01
      6.96625281e-03 1.77133810e-02 3.74127515e-02 1.12879477e-01
      4.05925512e-01 1.47902578e-01 3.17389816e-02 1.05874306e-02
      5.63066965e-03 2.20881798e-03 4.50744526e-03 2.13785488e-02
      1.70729399e-01 4.07172412e-01 2.56907105e-01 1.84634682e-02
      3.47617711e-03 1.59996725e-03 1.54573862e-02 2.50074249e-02
      6.51946217e-02 1.74353421e-01 3.70702595e-01 1.12981193e-01
      3.87028009e-02 2.19995212e-02 9.44916345e-03 3.21200839e-03
      8.92861839e-03 5.47771044e-02 4.04967368e-01 4.07172412e-01
      1.00709893e-01 2.64657177e-02 1.82753205e-02 4.94910078e-03
      5.14153875e-02 5.73392026e-02 1.31545752e-01 1.88773185e-01
      3.20685178e-01 2.78469384e-01 1.16694145e-01 5.92118278e-02
      4.68091927e-02 1.00452520e-01 9.85176042e-02 1.76499128e-01
      9.63007063e-02 2.72268087e-01 1.09231800e-01 1.18942916e-01
      8.63835737e-02 1.09532855e-01 4.95902561e-02 3.88429575e-02
      1.12946540e-01 2.28384480e-01 3.20685178e-01 3.20685178e-01
      2.18004048e-01 1.29095510e-01 7.45265558e-02 1.11048870e-01
      1.21943787e-01 2.30508283e-01 1.53021723e-01 2.42622390e-01
      9.80752856e-02 1.31381109e-01 1.00298651e-01 1.20292500e-01
      1.38369156e-02 2.78795548e-02 4.73752245e-02 1.92153260e-01
      3.12350363e-01 1.95190907e-01 5.87171279e-02 4.14658375e-02
      9.90367122e-03 2.16505453e-02 3.92050594e-02 1.15571797e-01
      3.12350363e-01 3.12350363e-01 2.48007506e-01 9.75310728e-02
      3.61096151e-02 2.94543449e-02 3.78184393e-02 9.26261023e-02
      1.97513342e-01 3.12350363e-01 3.12350363e-01 8.84833634e-02
      1.26898391e-02 9.35575925e-03 8.98297597e-03 5.58835268e-02
      1.20910816e-01 1.73869923e-01 3.12350363e-01 3.12350363e-01
      1.84089154e-01 4.64705527e-02 1.48947611e-02 2.14905888e-02
      5.63020371e-02 5.63900247e-02 6.69800490e-02 1.82701558e-01
      2.64408231e-01 2.13245541e-01 1.65798113e-01 9.52481180e-02
      8.38445276e-02 4.92940620e-02 4.99998033e-02 8.58874694e-02
      2.34784916e-01 2.64408231e-01 2.27336571e-01 2.17256114e-01
      9.44537446e-02 9.34231356e-02 8.32042098e-02 6.82917312e-02
      5.34308404e-02 1.41664729e-01 2.64408231e-01 2.53884643e-01
      2.64408231e-01 1.66920662e-01 1.06241241e-01 7.90112540e-02
      8.08629915e-02 8.42439532e-02 1.47785395e-01 1.91814065e-01
      2.43934572e-01 2.64408231e-01 1.85582519e-01 1.41358227e-01
      2.83324365e-02 6.89176545e-02 2.69367933e-01 3.21966141e-01
      2.18248338e-01 5.08500412e-02 1.93707701e-02 1.25118028e-02
      1.63091980e-02 1.10966545e-02 3.51130515e-02 2.54308462e-01
      3.21966141e-01 3.21966141e-01 3.32502387e-02 5.61072584e-03
      3.29714897e-03 5.09215565e-03 2.62256656e-02 1.47918537e-01
      3.21966141e-01 3.21966141e-01 1.22905836e-01 2.89727654e-02
      1.55204339e-02 1.05570797e-02 9.39907227e-03 1.70135293e-02
      6.77926689e-02 3.21966141e-01 3.21966141e-01 1.73759565e-01
      2.57607978e-02 8.03971663e-03 4.11291001e-03 6.42224588e-03
      2.62706876e-01 3.07658583e-01 1.59995288e-01 3.23136561e-02
      2.47522276e-02 3.15306745e-02 9.53754410e-02 7.12120980e-02
      7.76541904e-02 3.07658583e-01 3.07658583e-01 2.15459749e-01
      3.58131863e-02 7.48094590e-03 1.15916701e-02 3.69597897e-02
      4.50034663e-02 5.22381738e-02 3.07658583e-01 3.07658583e-01
      1.60520226e-01 2.13202015e-02 1.04944985e-02 7.84667395e-03
      1.17601380e-02 3.68980616e-02 1.56133294e-01 3.07658583e-01
      3.07658583e-01 2.59626627e-01 7.40054324e-02 3.23096178e-02
      1.38865858e-02 5.65814935e-02 1.01379551e-01 1.51663318e-01
      2.30762020e-01 2.55252868e-01 2.55252868e-01 2.55252868e-01
      1.82733908e-01 3.64178345e-02 2.48171622e-03 1.14057027e-02
      7.21485317e-02 1.72898188e-01 2.55252868e-01 2.55252868e-01
      2.55252868e-01 1.82871923e-01 3.07749640e-02 2.34587025e-02
      3.47561501e-02 1.07420713e-01 2.06297994e-01 1.95228457e-01
      2.40843669e-01 2.22516268e-01 1.20683387e-01 5.90192787e-02
      3.53241749e-02 5.95860109e-02 1.42828062e-01 1.48805425e-01
      2.41925880e-01 2.28566647e-01 1.44514486e-01 8.45708102e-02
      5.34971394e-02 9.12124962e-02 1.11646950e-01 1.39994070e-01
      2.15224057e-01 5.90693206e-02 4.65225093e-02 5.83743118e-02
      4.96645793e-02 9.29654017e-02 1.99741706e-01 2.72137105e-01
      2.72137105e-01 2.72137105e-01 1.93673626e-01 3.41655128e-02
      1.47568090e-02 1.75698251e-02 2.53232494e-02 4.92174625e-02
      1.53034166e-01 2.72137105e-01 1.38766766e-01 6.89653084e-02
      7.99736753e-02 1.05268665e-01 6.68961704e-02 1.58924818e-01
      2.50991911e-01 2.72137105e-01 2.46078387e-01 2.72137105e-01
      2.25950763e-01 8.64048600e-02 7.63212219e-02 8.28958228e-02
      5.65634556e-02 1.01093359e-01 1.65489703e-01 2.72137105e-01
      1.96804270e-01 2.81188279e-01 2.81188279e-01 1.45334870e-01
      4.70688269e-02 1.22205671e-02 1.22598037e-02 3.41071934e-02
      9.07901525e-02 1.97306171e-01 2.80703962e-01 2.81188279e-01
      2.02152133e-01 6.49677888e-02 2.78074760e-02 2.38628518e-02
      5.42350486e-02 1.51376486e-01 2.03303084e-01 2.81188279e-01
      2.36015573e-01 7.40592107e-02 7.25143701e-02 6.11026064e-02
      4.91952673e-02 1.01667285e-01 1.63076624e-01 2.60939211e-01
      2.01266810e-01 1.49047866e-01 1.06645785e-01 7.10428506e-02
      8.93771499e-02 8.29630718e-02 1.64632052e-01 2.81188279e-01
      1.04889236e-01 1.13988377e-01 1.32322922e-01 2.12991580e-01
      1.70910224e-01 1.33981705e-01 8.96473452e-02 1.44063175e-01
      1.34976029e-01 9.74756181e-02 1.21874385e-01 2.17593685e-01
      2.43088990e-01 1.98640585e-01 1.70344561e-01 1.23200811e-01
      1.82877600e-01 1.37822896e-01 8.49405825e-02 7.74122849e-02
      2.20735490e-01 2.43088990e-01 2.30094612e-01 1.17169596e-01
      9.34981555e-02 1.59602508e-01 1.17288969e-01 1.57435611e-01
      1.20562010e-01 2.41944298e-01 2.43088990e-01 1.87787831e-01
      1.21264510e-01 1.34605780e-01 2.22809836e-01 1.98222175e-01
      1.57250077e-01 2.13148266e-01 1.92569613e-01 1.20462470e-01
      5.29996641e-02 8.03176984e-02 1.40045837e-01 1.88075051e-01
      1.52946651e-01 1.28999442e-01 1.06336564e-01 1.18728824e-01
      1.04391173e-01 8.40447098e-02 2.54249632e-01 2.54249632e-01
      1.96335062e-01 1.51958331e-01 2.45278642e-01 2.54249632e-01
      2.54249632e-01 1.91525593e-01 1.39432877e-01 7.70048574e-02
      1.29652306e-01 1.18734501e-01 1.85201019e-01 1.43750072e-01
      1.40502006e-01 1.60065696e-01 1.66252643e-01 1.72818065e-01
      1.79021001e-01 1.51119202e-01 1.19441286e-01 1.66570440e-01</_>
    <_>
      7.01057687e-02 1.03421211e-01 1.79863572e-01 2.09327817e-01
      1.93314195e-01 1.35331914e-01 7.83961192e-02 7.99978152e-02
      8.47462192e-02 4.73372974e-02 1.17843546e-01 3.22151244e-01
      3.22151244e-01 1.64830506e-01 6.64727986e-02 1.52475694e-02
      2.08211802e-02 2.30906662e-02 3.68191376e-02 6.64926916e-02
      1.58461019e-01 3.22151244e-01 3.22151244e-01 1.91655502e-01
      7.89780691e-02 5.29405400e-02 3.96853127e-02 1.20189665e-02
      3.83926257e-02 2.94894159e-01 3.22151244e-01 3.00207168e-01
      6.54485151e-02 1.78997684e-02 1.16073024e-02 9.42466687e-03
      1.05541714e-01 2.70473301e-01 2.72932976e-01 2.72932976e-01
      2.04955727e-01 8.37273747e-02 1.09683774e-01 8.51980448e-02
      1.03717014e-01 1.65577307e-01 1.65081128e-01 1.56345487e-01
      1.31276369e-01 1.97549403e-01 1.42781153e-01 1.32787034e-01
      1.45644248e-01 1.08252741e-01 6.43120706e-02 1.21574730e-01
      1.63359329e-01 1.94909662e-01 2.04066008e-01 1.20355494e-01
      1.14735335e-01 9.24118608e-02 5.63943386e-02 1.51308909e-01
      2.67607927e-01 2.35930681e-01 1.97755471e-01 2.05965057e-01
      1.58685565e-01 1.43581539e-01 1.61635175e-01 1.01883419e-01
      1.56775072e-01 1.70743689e-01 2.09553629e-01 1.48066819e-01
      1.82302326e-01 1.17279135e-01 1.16120249e-01 1.64075390e-01
      2.01103538e-01 1.68672904e-01 1.78260535e-01 1.62445754e-01
      1.30622804e-01 1.38108641e-01 8.80658180e-02 1.09654255e-01
      1.85934797e-01 2.14952931e-01 1.19696252e-01 1.98315293e-01
      2.45238855e-01 2.07894504e-01 1.87054336e-01 1.18179619e-01
      1.00077346e-01 1.18466496e-01 1.40648678e-01 1.62359774e-01
      1.93107590e-01 2.45238855e-01 2.22460851e-01 1.80044562e-01
      1.23902388e-01 1.08134322e-01 1.31787434e-01 1.64071620e-01
      1.51506931e-01 1.72551677e-01 1.11215711e-01 7.25415498e-02
      8.16853419e-02 2.80500978e-01 2.97755450e-01 1.54909566e-01
      9.76682082e-02 6.97798654e-02 4.68789227e-02 2.36213915e-02
      3.82576138e-02 7.72851706e-02 2.97755450e-01 2.97755450e-01
      1.61000133e-01 7.30262995e-02 2.25080833e-01 2.44651765e-01
      1.59868762e-01 1.30092561e-01 7.69793615e-02 1.43920526e-01
      1.45843148e-01 7.60928243e-02 1.34333402e-01 1.65091097e-01
      9.51196849e-02 4.21112068e-02 8.51823315e-02 1.37465149e-01
      2.97755450e-01 2.97755450e-01 1.13090537e-01 1.28093034e-01
      6.54883087e-02 8.43837634e-02 1.25086322e-01 2.38826171e-01
      3.32635671e-01 2.06922352e-01 1.02316990e-01 6.05570227e-02
      4.87473197e-02 3.49762873e-03 9.95577592e-03 2.87613831e-02
      2.37066224e-01 3.32635671e-01 1.95090055e-01 2.82556247e-02
      1.12640858e-02 2.98177241e-03 7.55096450e-02 6.70296773e-02
      9.54626277e-02 1.90064073e-01 3.32635671e-01 3.32635671e-01
      9.85459164e-02 6.64926246e-02 4.38328870e-02 6.34720316e-03
      6.90691825e-03 1.89379696e-02 1.33367330e-01 3.32635671e-01
      3.32635671e-01 5.73209934e-02 1.40630510e-02 6.20090868e-03
      6.67553619e-02 6.60273954e-02 9.20519456e-02 1.04074597e-01
      1.93292692e-01 1.01565637e-01 1.10169932e-01 9.09009799e-02
      8.54942501e-02 1.20600671e-01 1.69032067e-01 2.10280344e-01
      1.87681928e-01 2.53791988e-01 1.79772601e-01 1.93305358e-01
      1.94785222e-01 1.86786383e-01 9.46271643e-02 9.71482396e-02
      1.07800111e-01 1.11305319e-01 2.13033766e-01 1.09327421e-01
      1.38975114e-01 1.31190658e-01 8.56790617e-02 2.34064609e-01
      2.37071365e-01 2.41901338e-01 2.39734933e-01 2.46714249e-01
      2.03944623e-01 1.80313528e-01 1.90237880e-01 1.50745213e-01
      9.93540287e-02 9.53909010e-02 1.34790197e-01 1.42126977e-01
      2.01741695e-01 1.21107198e-01 9.37302485e-02 9.25862193e-02
      8.52529481e-02 6.73115999e-02 9.48176086e-02 1.86297104e-01
      2.53969878e-01 2.53969878e-01 2.53969878e-01 2.07403377e-01
      1.12702310e-01 6.95527494e-02 1.38118729e-01 1.33522734e-01
      1.50784239e-01 1.39771238e-01 2.08088920e-01 1.34580463e-01
      1.22273527e-01 1.56750888e-01 1.08205616e-01 1.08729638e-01
      1.47591084e-01 1.73189595e-01 2.40580186e-01 2.53969878e-01
      2.53969878e-01 2.53969878e-01 2.05416068e-01 9.40667167e-02
      9.91894677e-02 8.66027176e-02 1.06396221e-01 1.56544790e-01
      2.35278726e-01 1.90612420e-01 1.44134924e-01 9.78699252e-02
      7.98753798e-02 6.83180168e-02 7.60305598e-02 9.38564837e-02
      1.77312255e-01 2.78370261e-01 2.64975905e-01 1.14067830e-01
      8.47927257e-02 6.97907582e-02 1.38440013e-01 1.22595631e-01
      8.60604271e-02 8.83168876e-02 1.52548969e-01 2.50225812e-01
      2.36989424e-01 2.14759514e-01 1.86925575e-01 1.14518926e-01
      1.17697768e-01 1.10444464e-01 2.69511074e-01 2.78370261e-01
      2.42264435e-01 1.57674611e-01 1.60644487e-01 1.44898430e-01
      1.07133895e-01 1.16163991e-01 1.36037320e-01 1.54575020e-01
      1.77263305e-01 2.09048957e-01 1.64151266e-01 1.18177190e-01
      1.64829567e-01 6.82357773e-02 1.06285147e-01 1.11226335e-01
      1.19195662e-01 2.06177711e-01 2.44724259e-01 2.44724259e-01
      1.38440847e-01 1.09976113e-01 1.31114796e-01 1.87926039e-01
      1.64344162e-01 1.16096899e-01 9.07585993e-02 1.28575727e-01
      1.61727399e-01 1.20201945e-01 1.33411855e-01 1.64728791e-01
      2.44724259e-01 2.31941476e-01 1.28212944e-01 1.56689167e-01
      2.44724259e-01 2.44724259e-01 1.89005330e-01 1.93430677e-01
      8.19221362e-02 1.19566791e-01 1.01725064e-01 9.89768282e-02
      1.25215113e-01 1.60582468e-01 2.39330500e-01 1.54007047e-01
      9.99284610e-02 7.38426223e-02 9.10417363e-02 8.97568241e-02
      8.83860141e-02 1.54450193e-01 1.30059615e-01 1.19288258e-01
      8.47212747e-02 7.80167058e-02 1.04829423e-01 5.37956543e-02
      6.53814450e-02 8.02371502e-02 1.41194418e-01 3.39150190e-01
      3.39150190e-01 3.39150190e-01 2.00505197e-01 1.25951648e-01
      9.95081812e-02 1.18880458e-01 1.25785097e-01 1.79855958e-01
      1.98878974e-01 2.34767437e-01 2.98014104e-01 1.54223695e-01
      1.12039372e-01 1.38169751e-01 1.16985627e-01 9.53968167e-02
      1.90626115e-01 1.54397473e-01 1.62123099e-01 1.15417175e-01
      8.07604566e-02 1.45198941e-01 1.13757625e-01 1.39241904e-01
      1.70333356e-01 2.17905983e-01 2.22348079e-01 2.22151816e-01
      2.51309067e-01 1.91151887e-01 1.84627682e-01 1.84588090e-01
      1.32184684e-01 8.89324918e-02 1.46900564e-01 1.22236222e-01
      1.36325389e-01 1.29936263e-01 1.33900568e-01 1.92740232e-01
      1.77861765e-01 1.55240595e-01 1.51428849e-01 2.24583656e-01
      2.17590049e-01 1.67335927e-01 1.91752642e-01 2.15713680e-01
      8.74956623e-02 9.37134251e-02 3.04265738e-01 1.92860231e-01
      7.25562572e-02 5.99894188e-02 5.31755388e-02 1.07708022e-01
      1.00274779e-01 6.83023632e-02 1.09868892e-01 3.19514334e-01
      3.19514334e-01 1.34691820e-01 4.62409630e-02 2.49264687e-02
      6.84790313e-02 6.60810173e-02 8.58586282e-02 3.09194893e-01
      3.19514334e-01 2.02414483e-01 5.73140308e-02 2.98984963e-02
      2.35362034e-02 2.98295096e-02 4.12517115e-02 8.88816789e-02
      2.97997624e-01 3.19514334e-01 3.19514334e-01 9.77112427e-02
      2.01783329e-02 1.62954591e-02 1.66486464e-02 4.04996052e-02
      2.40387484e-01 1.51716441e-01 1.13417573e-01 1.07616074e-01
      1.18435524e-01 1.81605220e-01 1.56952068e-01 1.49461523e-01
      2.18167514e-01 2.40387484e-01 1.26588687e-01 1.16370603e-01
      1.12006515e-01 2.06225961e-01 2.40387484e-01 2.16415271e-01
      1.40377700e-01 1.78163528e-01 9.60773900e-02 7.83762857e-02
      8.41514468e-02 1.78886399e-01 1.80217609e-01 2.16503009e-01
      1.97698802e-01 1.53052762e-01 1.39642805e-01 1.27750203e-01
      8.16644952e-02 9.03183669e-02 1.43721253e-01 1.65794075e-01
      2.40387484e-01 2.40387484e-01 1.56905115e-01 1.30288213e-01
      1.00347452e-01 7.30926991e-02 4.73972894e-02 4.95575592e-02
      4.71124575e-02 1.12541303e-01 2.88762540e-01 2.88762540e-01
      2.24955216e-01 1.04644217e-01 6.50437921e-02 4.33936380e-02
      2.45275348e-02 3.53351794e-02 6.70254081e-02 2.30772316e-01
      2.88762540e-01 2.88762540e-01 1.62130967e-01 1.20731294e-01
      7.98503235e-02 8.41752663e-02 1.01968952e-01 1.47239313e-01
      1.84569433e-01 2.26249561e-01 2.46487662e-01 1.53598085e-01
      1.20826602e-01 8.36846307e-02 7.23429993e-02 7.40417615e-02
      1.19134814e-01 2.25934938e-01 2.88762540e-01 2.53705531e-01
      2.68009454e-01 8.48920047e-02 3.80667932e-02 4.41144742e-02
      1.35404486e-02 1.45748146e-02 2.35877465e-02 9.38339382e-02
      2.68009454e-01 2.68009454e-01 2.57651567e-01 9.04115885e-02
      2.91659776e-02 1.10708913e-02 3.18546891e-02 6.14672564e-02
      1.10967018e-01 2.11416781e-01 2.68009454e-01 1.07277058e-01
      1.20174967e-01 1.52081206e-01 1.15489088e-01 8.66823792e-02
      1.15577787e-01 1.70235783e-01 2.68009454e-01 2.68009454e-01
      1.82672635e-01 1.18948698e-01 8.26422423e-02 7.74358064e-02
      1.50376469e-01 2.65234947e-01 2.68009454e-01 2.66923487e-01
      2.25875139e-01 2.29120255e-01 2.27550060e-01 1.12024128e-01
      1.16899334e-01 8.63529816e-02 1.49516925e-01 1.77250057e-01
      1.68531135e-01 1.67108878e-01 1.38636470e-01 1.47527546e-01
      1.28795102e-01 1.71775296e-01 1.44988626e-01 2.10188791e-01
      1.91222370e-01 2.04394162e-01 1.41068846e-01 9.92067307e-02
      9.42037702e-02 7.68351331e-02 1.83558971e-01 2.29120255e-01
      2.29120255e-01 1.72987282e-01 1.39368385e-01 1.42066896e-01
      9.03487653e-02 1.01382822e-01 1.01250805e-01 1.92169532e-01
      2.29120255e-01 2.29120255e-01 1.70633018e-01 1.24706402e-01</_>
    <_>
      2.07442611e-01 2.77290821e-01 1.61054567e-01 1.44185692e-01
      1.00301422e-01 6.22305684e-02 6.37963861e-02 5.34510016e-02
      1.17348224e-01 3.12336236e-01 3.12336236e-01 1.31966785e-01
      1.06169201e-01 9.79216024e-02 5.75026087e-02 5.90969883e-02
      6.20343238e-02 1.48955181e-01 2.98551172e-01 3.12336236e-01
      3.12336236e-01 8.12143758e-02 3.22792158e-02 3.06841452e-02
      3.79600711e-02 4.26784605e-02 9.06704590e-02 3.12336236e-01
      3.12336236e-01 1.37073040e-01 4.55644652e-02 1.71058197e-02
      1.30560547e-02 1.10013364e-02 1.52472192e-02 9.10286233e-02
      3.16294104e-01 1.00607060e-01 5.73470667e-02 6.34312555e-02
      6.84060529e-02 6.31804466e-02 6.41507506e-02 1.07507475e-01
      3.16294104e-01 3.16294104e-01 1.30858138e-01 5.10441139e-02
      5.72689548e-02 7.71453977e-02 6.34446964e-02 6.50364012e-02
      2.31502235e-01 3.16294104e-01 3.16294104e-01 6.19838275e-02
      2.24151742e-02 1.59384012e-02 1.10373618e-02 1.07800066e-02
      2.01320611e-02 1.07380144e-01 3.16294104e-01 2.01597109e-01
      4.36200723e-02 1.65016819e-02 1.52150597e-02 1.94310118e-02
      2.11346932e-02 5.72055094e-02 3.16294104e-01 3.16294104e-01
      1.28493413e-01 1.39102951e-01 1.35454237e-01 1.64064482e-01
      1.83510602e-01 1.64086983e-01 1.36239395e-01 1.84017673e-01
      1.38974592e-01 1.53478518e-01 1.66890755e-01 1.68020710e-01
      1.38243809e-01 1.42846242e-01 1.31790251e-01 1.16272554e-01
      1.46999016e-01 1.46332130e-01 1.03126265e-01 9.38629657e-02
      8.04227442e-02 8.76953006e-02 1.46878347e-01 2.24600598e-01
      2.63321102e-01 2.63321102e-01 2.23035753e-01 1.45354912e-01
      1.53853714e-01 1.53329104e-01 1.20627292e-01 1.47018939e-01
      1.74737215e-01 2.63321102e-01 2.63321102e-01 1.52029783e-01
      2.03881115e-01 1.42346308e-01 1.60903499e-01 1.21907972e-01
      1.86706468e-01 1.61212608e-01 1.67854771e-01 1.78710654e-01
      2.20310375e-01 1.48201749e-01 1.00413382e-01 1.21837638e-01
      1.63332582e-01 2.30419070e-01 2.30419070e-01 1.92913502e-01
      2.14090511e-01 1.26377761e-01 2.30419070e-01 1.84396267e-01
      1.06862321e-01 1.11637145e-01 1.65683776e-01 1.15428083e-01
      1.28455326e-01 1.37776926e-01 2.30419070e-01 1.47590429e-01
      1.24056116e-01 1.03616126e-01 1.54685065e-01 2.30419070e-01
      1.81076989e-01 1.34447411e-01 1.41680822e-01 1.03175357e-01
      1.61112368e-01 2.80000150e-01 2.80000150e-01 1.99487627e-01
      1.41526431e-01 1.10821538e-01 1.19165041e-01 1.28341570e-01
      1.44980848e-01 1.56337008e-01 1.99870229e-01 1.67320013e-01
      1.34799510e-01 2.40853861e-01 1.90707520e-01 1.23714164e-01
      1.25415951e-01 9.27984491e-02 1.08867928e-01 8.90249014e-02
      1.44311130e-01 9.15104821e-02 1.91549376e-01 1.15040533e-01
      9.05947313e-02 9.38350037e-02 1.10536747e-01 1.78944841e-01
      1.95222124e-01 1.98276728e-01 1.91437766e-01 2.80000150e-01
      2.04817146e-01 1.40504822e-01 9.57570374e-02 1.50249556e-01
      1.43631071e-01 1.68933466e-01 1.60572425e-01 1.56869829e-01
      1.32996857e-01 1.36200860e-01 1.53909937e-01 1.64288715e-01
      1.87530532e-01 1.97269157e-01 1.52877510e-01 1.29877210e-01
      1.25799149e-01 1.13068789e-01 1.27455786e-01 1.34570956e-01
      1.64419442e-01 2.41062596e-01 1.51007339e-01 2.40273595e-01
      2.42047355e-01 2.27589622e-01 1.56088859e-01 1.32363364e-01
      1.26343697e-01 1.23189427e-01 1.40198410e-01 1.84762910e-01
      1.84375837e-01 2.11516947e-01 2.16195315e-01 1.67832926e-01
      1.41325951e-01 1.00152299e-01 1.30256623e-01 1.74141407e-01
      1.45187140e-01 1.35730565e-01 8.19938108e-02 6.48148209e-02
      8.09818134e-02 2.48047486e-01 3.04093182e-01 2.04424128e-01
      8.51534531e-02 6.47058412e-02 3.15689072e-02 2.07319893e-02
      2.94374935e-02 7.32864514e-02 3.04093182e-01 3.04093182e-01
      2.05082163e-01 7.34224319e-02 2.39466339e-01 2.05161810e-01
      1.29650638e-01 1.18051581e-01 8.16130936e-02 1.73237354e-01
      1.77098066e-01 8.13612714e-02 1.48281962e-01 1.42553732e-01
      8.15245882e-02 4.03458364e-02 5.33330366e-02 1.19272768e-01
      3.04093182e-01 3.04093182e-01 1.21010430e-01 1.43570840e-01
      1.43045440e-01 1.01958275e-01 7.34364390e-02 7.56940842e-02
      9.79193673e-02 1.97632536e-01 2.29446635e-01 2.06980959e-01
      1.75324038e-01 1.22886360e-01 1.28290668e-01 1.33621201e-01
      1.47732079e-01 1.38283044e-01 1.52309954e-01 1.25194624e-01
      1.51516199e-01 1.49609968e-01 9.33523104e-02 7.11648315e-02
      8.40049610e-02 1.29089847e-01 1.84666097e-01 2.38742277e-01
      2.38742277e-01 2.38742277e-01 1.51686504e-01 1.02182947e-01
      1.04351290e-01 1.76369518e-01 2.38742277e-01 2.38742277e-01
      2.38742277e-01 2.15523839e-01 2.28009447e-01 1.36802956e-01
      4.96724583e-02 7.41031170e-02 7.92979375e-02 7.31491148e-02
      1.99673548e-01 1.33287743e-01 1.09885938e-01 1.10835455e-01
      6.75930977e-02 1.16143145e-01 1.67675152e-01 1.97032526e-01
      1.88959226e-01 2.50453591e-01 1.97253615e-01 2.33153522e-01
      2.13483170e-01 1.46815106e-01 6.07719980e-02 9.05972198e-02
      1.25888318e-01 1.00360923e-01 1.94061562e-01 1.27632186e-01
      1.36349916e-01 1.04036532e-01 8.46451446e-02 1.84640765e-01
      2.22624794e-01 2.20117539e-01 2.51497060e-01 2.32873723e-01
      2.23784596e-01 2.46606410e-01 1.92842126e-01 1.61393970e-01
      1.01442836e-01 1.08515874e-01 1.11885637e-01 1.42798498e-01
      2.07884818e-01 1.08897120e-01 1.14715777e-01 9.74131450e-02
      8.15619752e-02 5.85097373e-02 9.28443447e-02 1.82580024e-01
      2.63918936e-01 2.63918936e-01 2.63918936e-01 1.86365172e-01
      1.24070764e-01 4.92513366e-02 1.16265297e-01 1.33212596e-01
      1.53967381e-01 1.55723959e-01 1.77632675e-01 1.01089984e-01
      1.27609313e-01 1.51438460e-01 1.13042466e-01 9.90616232e-02
      1.43184796e-01 1.75320536e-01 2.49281406e-01 2.63918936e-01
      2.63918936e-01 2.63918936e-01 2.00626925e-01 7.56852254e-02
      8.76477957e-02 6.98918924e-02 8.12740624e-02 1.74296990e-01
      2.10673511e-01 1.58050850e-01 1.48021013e-01 1.13802813e-01
      9.38838050e-02 6.43317476e-02 6.79519400e-02 9.47077647e-02
      2.02110648e-01 2.74005622e-01 2.74005622e-01 1.77151754e-01
      1.09951243e-01 5.10588251e-02 8.35277364e-02 6.70862347e-02
      7.23716319e-02 1.25627369e-01 1.45924866e-01 1.89561173e-01
      2.26115525e-01 2.26068929e-01 1.99242845e-01 8.74643922e-02
      6.70332387e-02 1.53319344e-01 2.74005622e-01 2.74005622e-01
      2.58019179e-01 2.33264238e-01 1.71416566e-01 1.09652080e-01
      2.20547654e-02 3.10983583e-02 5.95801100e-02 2.05751270e-01
      2.62080967e-01 2.43797973e-01 8.71050060e-02 4.57622632e-02
      1.69872232e-02 8.33264589e-02 1.12855233e-01 1.39355063e-01
      2.62080967e-01 2.62080967e-01 2.62080967e-01 1.43104985e-01
      8.80479589e-02 6.07758649e-02 4.21677567e-02 7.03079030e-02
      1.17203258e-01 2.62080967e-01 2.62080967e-01 1.74927294e-01
      9.69275609e-02 6.03450425e-02 3.21625695e-02 1.14470474e-01
      1.33805111e-01 1.94748491e-01 2.47221604e-01 2.62080967e-01
      2.62080967e-01 2.13363364e-01 1.08152755e-01 8.78534988e-02
      1.10005260e-01 1.15664609e-01 1.22214533e-01 8.18648115e-02
      1.31194755e-01 1.38001040e-01 2.22406417e-01 1.53790578e-01
      1.13475889e-01 7.98983201e-02 8.33740458e-02 8.77779722e-02
      8.26046020e-02 1.66095451e-01 1.12205230e-01 1.36103481e-01
      1.19757243e-01 8.91545862e-02 1.05063677e-01 9.06723216e-02
      5.90935983e-02 7.55644813e-02 1.81351706e-01 3.38464350e-01
      3.38464350e-01 3.38464350e-01 2.16411605e-01 8.06664154e-02
      1.21116512e-01 7.68709108e-02 1.24199204e-01 2.54416317e-01
      1.77937642e-01 2.29501307e-01 2.39356324e-01 1.32944673e-01
      9.31041688e-02 1.14434779e-01 1.10259332e-01 1.31980732e-01
      2.12976590e-01 1.95308626e-01 1.50177091e-01 9.22131762e-02
      8.54327083e-02 1.19715087e-01 1.50830239e-01 1.86951533e-01
      1.81096837e-01 1.92382142e-01 2.23264739e-01 2.55173683e-01
      1.99896872e-01 1.74969450e-01 1.65109366e-01 1.43324599e-01
      1.03886828e-01 1.19624630e-01 1.89283371e-01 1.69678316e-01
      1.30770549e-01 1.02173485e-01 1.38041660e-01 1.82556957e-01
      1.47089705e-01 1.43565252e-01 1.31015554e-01 2.49832645e-01
      1.84267953e-01 2.36122772e-01 1.45291746e-01 2.16295689e-01
      9.77881625e-02 1.03221245e-01 2.95762181e-01 1.85860351e-01
      6.32289946e-02 6.55007660e-02 7.65794143e-02 1.23308912e-01
      9.24930647e-02 7.26969987e-02 9.11316946e-02 3.21059257e-01
      3.21059257e-01 1.48854285e-01 7.58019611e-02 4.09175903e-02
      7.40119666e-02 5.29592037e-02 7.26625770e-02 2.92895198e-01
      3.21059257e-01 2.38863856e-01 7.03743771e-02 3.66203375e-02
      2.77284756e-02 2.78377570e-02 4.27321158e-02 7.58440867e-02
      2.59056151e-01 3.21059257e-01 3.21059257e-01 1.23943180e-01
      4.63154390e-02 1.55512420e-02 2.60159448e-02 2.68804338e-02
      9.88559425e-02 1.75848633e-01 2.28725195e-01 2.28725195e-01
      2.14024752e-01 1.16559803e-01 9.16783288e-02 7.01365322e-02
      9.29569677e-02 1.23314656e-01 1.49376869e-01 1.83171898e-01
      1.22328438e-01 2.19479695e-01 1.94915831e-01 1.49591401e-01
      1.42905354e-01 1.38316259e-01 1.30478770e-01 1.44179463e-01
      1.78274632e-01 1.84556648e-01 2.28725195e-01 1.64966360e-01
      1.97058707e-01 1.58227816e-01 9.72960517e-02 1.52039811e-01
      1.53313696e-01 1.90147221e-01 1.97548062e-01 2.15671897e-01
      1.66560158e-01 1.83367282e-01 1.70531616e-01 1.47027954e-01</_>
    <_>
      1.47910446e-01 2.21657962e-01 2.67816186e-01 2.32133657e-01
      1.66942880e-01 8.00303891e-02 8.89164880e-02 1.01316974e-01
      1.63172171e-01 1.51206642e-01 1.32977322e-01 1.51398167e-01
      1.84474036e-01 2.50168175e-01 1.46897361e-01 1.38561741e-01
      1.05983742e-01 1.30286708e-01 8.69885832e-02 1.21014193e-01
      1.43649742e-01 1.36344567e-01 1.86803907e-01 1.23831324e-01
      1.09611876e-01 8.92684981e-02 9.35730189e-02 1.71694875e-01
      2.12411180e-01 1.99490339e-01 2.43364975e-01 2.67816186e-01
      1.95990890e-01 1.64739579e-01 1.07433006e-01 1.72388270e-01
      1.42923057e-01 1.77011520e-01 1.62396222e-01 1.63192287e-01
      1.59870639e-01 1.34594992e-01 1.28257900e-01 1.63547635e-01
      1.66008919e-01 2.02665225e-01 1.78044781e-01 1.14416629e-01
      1.19829193e-01 1.41811490e-01 1.23572856e-01 1.09395541e-01
      1.64514124e-01 2.18868345e-01 1.54767036e-01 1.90529659e-01
      2.43343100e-01 2.19492480e-01 1.75041541e-01 1.58650875e-01
      1.08301051e-01 1.14613071e-01 1.26919359e-01 2.06715375e-01
      1.89813450e-01 2.14059040e-01 2.29245603e-01 2.08886981e-01
      1.51968166e-01 1.03371084e-01 1.07853286e-01 1.58810452e-01
      1.64687276e-01 1.43464878e-01 1.01230145e-01 8.80787522e-02
      9.08391848e-02 2.69804806e-01 2.98761547e-01 1.88579574e-01
      9.18261334e-02 5.48702739e-02 3.91798615e-02 2.25611739e-02
      4.10317294e-02 1.00626990e-01 2.98761547e-01 2.98761547e-01
      1.87067553e-01 8.92542303e-02 2.38992527e-01 1.99430510e-01
      1.48731172e-01 1.08205035e-01 9.74020138e-02 1.70569256e-01
      1.51263669e-01 8.57352614e-02 1.40427828e-01 1.34480208e-01
      8.75044242e-02 5.17612956e-02 4.26181369e-02 1.48720071e-01
      2.98761547e-01 2.98761547e-01 1.02468506e-01 1.34316146e-01
      1.43727243e-01 6.53118193e-02 6.45863339e-02 8.18106011e-02
      1.23946324e-01 1.88302234e-01 2.36635402e-01 2.15689987e-01
      1.61171138e-01 1.25003144e-01 9.74621922e-02 1.11526087e-01
      1.57445461e-01 1.53047755e-01 1.42221391e-01 1.42456755e-01
      1.77238107e-01 1.50407344e-01 1.21565849e-01 6.20648116e-02
      9.59312543e-02 1.35469511e-01 2.21860677e-01 2.36635402e-01
      2.36635402e-01 2.36635402e-01 1.38572440e-01 1.25645250e-01
      8.65140036e-02 1.56626672e-01 2.36635402e-01 2.36635402e-01
      2.36635402e-01 2.03321099e-01 2.11204827e-01 1.33651495e-01
      5.27460985e-02 5.37154749e-02 7.24198595e-02 9.37241912e-02
      2.04015478e-01 1.33459210e-01 1.04012020e-01 1.02556244e-01
      7.79062659e-02 1.38484240e-01 1.51305601e-01 1.80344135e-01
      2.09131211e-01 2.50832289e-01 2.40527824e-01 2.04078525e-01
      2.12909773e-01 1.41037792e-01 6.47529364e-02 9.24426541e-02
      1.03635646e-01 9.12948623e-02 2.00115293e-01 1.26845762e-01
      1.52978092e-01 8.91110450e-02 9.08992663e-02 1.66682541e-01
      2.27631688e-01 2.24863321e-01 2.28935480e-01 2.53057092e-01
      2.46991321e-01 2.40828916e-01 1.72563255e-01 1.48372874e-01
      7.10536689e-02 9.98252258e-02 9.94448438e-02 1.16774440e-01
      1.85537875e-01 1.40089512e-01 1.11711942e-01 1.19791053e-01
      9.77935344e-02 7.66341612e-02 7.79669136e-02 1.92011535e-01
      2.47653902e-01 2.64773458e-01 2.64773458e-01 2.04578668e-01
      1.13362804e-01 7.84511715e-02 1.23398252e-01 1.55969754e-01
      1.24715060e-01 1.23525172e-01 1.74773380e-01 1.28861770e-01
      1.22287147e-01 1.71589002e-01 1.42569557e-01 1.29209295e-01
      1.40866429e-01 1.56523645e-01 2.07342029e-01 2.64773458e-01
      2.64773458e-01 2.64773458e-01 2.12980881e-01 1.23316757e-01
      7.67524689e-02 3.61180417e-02 1.11698069e-01 1.76907718e-01
      1.87062100e-01 1.87198669e-01 1.41977713e-01 1.23074330e-01
      8.93805698e-02 5.26650958e-02 5.56132793e-02 8.54714885e-02
      2.12807477e-01 2.76693314e-01 2.68107057e-01 1.43653810e-01
      1.09520480e-01 5.70243709e-02 1.15181223e-01 5.59921190e-02
      6.99261799e-02 1.10613324e-01 1.43756285e-01 2.16565251e-01
      2.55746007e-01 2.42519930e-01 1.69784099e-01 9.66490954e-02
      7.71666616e-02 9.75183621e-02 2.76693314e-01 2.76693314e-01
      2.66160727e-01 1.97318286e-01 1.91569254e-01 1.07770614e-01
      1.55390901e-02 2.29152534e-02 6.94157705e-02 1.89766392e-01
      2.62293190e-01 2.51074344e-01 8.63187686e-02 3.47621031e-02
      2.72052046e-02 7.64992610e-02 8.86207521e-02 1.71148732e-01
      2.62293190e-01 2.62293190e-01 2.62293190e-01 1.65150136e-01
      7.24272877e-02 6.93233982e-02 3.90528776e-02 6.72293231e-02
      1.13494717e-01 2.62293190e-01 2.62293190e-01 1.48556277e-01
      8.14245790e-02 4.88782190e-02 4.19112667e-02 1.11919723e-01
      1.48026988e-01 2.07798883e-01 2.62293190e-01 2.62293190e-01
      2.42065594e-01 2.14096099e-01 1.12270944e-01 7.88192451e-02
      1.15862645e-01 8.52326080e-02 9.16155279e-02 1.02792352e-01
      1.33393347e-01 1.59344703e-01 2.22020313e-01 1.55816212e-01
      1.30462453e-01 7.27145299e-02 7.22616389e-02 9.31419507e-02
      8.54668841e-02 1.57274574e-01 1.11203261e-01 1.11346588e-01
      9.19349268e-02 7.62543455e-02 1.04255386e-01 5.76961115e-02
      5.23289554e-02 6.04065023e-02 1.25003651e-01 3.30546618e-01
      3.38758409e-01 3.38758409e-01 2.25499928e-01 7.55854100e-02
      7.78605565e-02 1.04290456e-01 1.10486589e-01 2.18721539e-01
      1.96631536e-01 2.42901385e-01 3.20856541e-01 1.54225841e-01
      9.53706503e-02 9.97846425e-02 1.22152276e-01 1.33708954e-01
      2.15709150e-01 1.78748533e-01 1.16452143e-01 8.18981603e-02
      6.49269372e-02 1.56209886e-01 1.41052961e-01 1.45156056e-01
      1.64277479e-01 1.75062627e-01 2.49129206e-01 2.49778792e-01
      1.92519635e-01 1.92949474e-01 1.77131832e-01 1.42115459e-01
      1.29499227e-01 1.18616931e-01 1.51654735e-01 1.62629440e-01
      1.37045503e-01 1.13389902e-01 1.43047661e-01 2.03882620e-01
      2.08110392e-01 1.38243645e-01 1.57369360e-01 2.13487595e-01
      2.24223152e-01 2.10697562e-01 1.67964965e-01 1.99385777e-01
      8.10560361e-02 9.54647586e-02 3.17983359e-01 1.84475690e-01
      6.96833655e-02 5.66042736e-02 6.86397702e-02 1.15642078e-01
      1.09138690e-01 4.91922498e-02 1.00018166e-01 3.19298834e-01
      3.19298834e-01 1.41691640e-01 5.93480766e-02 4.85562123e-02
      5.30397072e-02 6.27390221e-02 8.10505822e-02 3.03710222e-01
      3.19298834e-01 2.03476712e-01 4.31026816e-02 3.61968800e-02
      2.48189401e-02 4.31740098e-02 5.58268875e-02 6.42466247e-02
      2.93908268e-01 3.19298834e-01 3.19298834e-01 1.01697735e-01
      3.31875384e-02 2.03225333e-02 2.66318135e-02 3.13873850e-02
      7.97873065e-02 1.76728964e-01 2.27310449e-01 2.27310449e-01
      1.89362228e-01 1.43460467e-01 1.01484135e-01 9.13797319e-02
      8.06709081e-02 1.21342413e-01 1.49156541e-01 1.62293106e-01
      1.49310499e-01 1.83553874e-01 1.79844946e-01 1.48948580e-01
      1.55466259e-01 1.54949948e-01 1.12980232e-01 1.49479702e-01
      1.73864514e-01 1.95400581e-01 1.99322388e-01 2.07857117e-01
      2.12992072e-01 1.67130724e-01 9.73780081e-02 1.62965313e-01
      1.55521736e-01 1.76556706e-01 2.03457013e-01 2.01858014e-01
      1.86856478e-01 1.84598267e-01 1.67239994e-01 1.51441038e-01
      8.39226767e-02 6.81034178e-02 7.33055174e-02 2.71828957e-02
      3.90566960e-02 9.86953303e-02 2.87425369e-01 2.87425369e-01
      2.37032369e-01 9.21923965e-02 6.13206662e-02 5.36867492e-02
      1.60763673e-02 2.72060782e-02 7.25007728e-02 2.41448641e-01
      2.87425369e-01 2.87425369e-01 1.51640877e-01 1.12888023e-01
      1.12015434e-01 6.17370196e-02 9.99198705e-02 1.45258814e-01
      1.99987739e-01 2.34516442e-01 2.20207885e-01 1.52361482e-01
      1.32692263e-01 9.85643342e-02 5.38822860e-02 7.69913271e-02
      1.22872099e-01 2.38322228e-01 2.87425369e-01 2.47374341e-01
      2.70297557e-01 9.33191478e-02 3.24761271e-02 4.42824103e-02
      1.37708522e-02 1.32488031e-02 2.17252895e-02 1.02357395e-01
      2.70297557e-01 2.70297557e-01 2.70297557e-01 7.32705817e-02
      2.64336355e-02 1.62890516e-02 3.69678661e-02 4.72700819e-02
      1.13924794e-01 1.99330747e-01 2.70297557e-01 1.24971084e-01
      9.89372656e-02 1.53724745e-01 1.17912546e-01 8.46406370e-02
      1.03385530e-01 1.96329489e-01 2.70297557e-01 2.70297557e-01
      1.90893903e-01 9.09454152e-02 8.43393132e-02 8.46902132e-02
      1.75536186e-01 2.11942121e-01 2.70297557e-01 2.70297557e-01
      2.03913614e-01 2.30275080e-01 1.99142829e-01 9.25346389e-02
      1.32317945e-01 1.38768286e-01 1.51930079e-01 1.69706762e-01
      1.70864388e-01 1.36900678e-01 1.46063626e-01 1.30362108e-01
      1.50126725e-01 1.91137522e-01 1.74895987e-01 1.90699607e-01
      2.02994794e-01 1.84003085e-01 1.27463460e-01 9.76110920e-02
      7.26554319e-02 8.28551576e-02 1.77899525e-01 2.30275080e-01
      2.30275080e-01 1.81796834e-01 1.66725934e-01 1.05848961e-01
      1.11547709e-01 8.13875422e-02 1.30471379e-01 1.98658377e-01
      2.30275080e-01 2.30275080e-01 1.71254322e-01 1.42335057e-01
      1.67007789e-01 1.97883144e-01 2.27231652e-01 1.91081777e-01
      1.54443383e-01 1.37861520e-01 1.61281839e-01 1.09069929e-01
      1.27093256e-01 1.66181117e-01 2.27231652e-01 2.27231652e-01
      2.27231652e-01 1.56561106e-01 1.64014727e-01 1.44721448e-01
      1.01173885e-01 1.44102171e-01 1.66445613e-01 1.68040007e-01
      1.80803657e-01 1.60110682e-01 1.48110330e-01 1.61474034e-01
      1.78675562e-01 9.70101207e-02 1.26471713e-01 1.05383165e-01
      1.51971623e-01 1.81938618e-01 1.80684283e-01 1.63137287e-01
      2.27231652e-01 2.03227356e-01 8.35908726e-02 1.16800569e-01</_>
    <_>
      8.65074545e-02 8.17421824e-02 1.65938407e-01 2.49057174e-01
      1.62587255e-01 9.10530463e-02 7.93224499e-02 6.10124059e-02
      6.99757040e-02 8.06202218e-02 1.45596847e-01 3.37300360e-01
      3.37300360e-01 2.11204633e-01 6.07273243e-02 4.29462455e-02
      4.44954708e-02 4.73520383e-02 3.34288627e-02 6.67483062e-02
      1.66833222e-01 3.37300360e-01 2.54843026e-01 1.40972778e-01
      8.19121823e-02 3.01319808e-02 2.83308886e-02 1.28693469e-02
      4.09895889e-02 3.37300360e-01 3.37300360e-01 2.48949513e-01
      4.05062884e-02 1.35574350e-02 4.59873909e-03 5.81423705e-03
      1.04742594e-01 2.80072182e-01 2.80072182e-01 2.46930480e-01
      1.95336610e-01 9.32797790e-02 6.45778328e-02 9.12138894e-02
      1.09153345e-01 1.59151196e-01 1.88654006e-01 1.95383966e-01
      1.65767863e-01 1.28505334e-01 9.07953009e-02 8.80272612e-02
      1.13994345e-01 1.71002343e-01 1.08701341e-01 1.43294558e-01
      1.65272400e-01 2.10879028e-01 2.19868377e-01 1.57665044e-01
      1.01779766e-01 1.44923508e-01 1.27532959e-01 1.70646384e-01
      1.76272750e-01 1.37213603e-01 1.72146320e-01 1.83948934e-01
      1.44998387e-01 1.56826913e-01 1.94905087e-01 2.11510435e-01
      1.45935237e-01 1.96787313e-01 2.03180939e-01 1.41458496e-01
      1.03804588e-01 9.71126407e-02 1.22777015e-01 1.17173947e-01
      1.30384788e-01 1.70449600e-01 2.07133740e-01 1.96343869e-01
      1.66236952e-01 1.45092994e-01 1.02859952e-01 1.15720131e-01
      1.93262294e-01 1.91362485e-01 1.41396016e-01 1.98964953e-01
      2.40720257e-01 1.81911871e-01 1.30829975e-01 7.81622604e-02
      8.72178748e-02 1.05243251e-01 1.16604634e-01 1.33574665e-01
      1.89387202e-01 2.28199631e-01 2.55618155e-01 2.55618155e-01
      1.50054470e-01 1.37929574e-01 1.75143674e-01 1.95390642e-01
      1.71018884e-01 2.15504110e-01 9.78471190e-02 4.61673960e-02
      4.20687310e-02 1.79533616e-01 2.98740029e-01 2.34456271e-01
      7.58704841e-02 7.72325173e-02 7.52064213e-02 3.47470567e-02
      3.35284173e-02 6.54515848e-02 2.98740029e-01 2.98740029e-01
      1.85507461e-01 6.21055365e-02 2.18694419e-01 2.98740029e-01
      1.68795481e-01 7.47712106e-02 6.08580895e-02 7.52834827e-02
      9.48784873e-02 6.47770837e-02 1.04284741e-01 1.49476036e-01
      1.59587517e-01 7.91813284e-02 7.72993043e-02 1.44075453e-01
      2.98740029e-01 2.95940638e-01 8.63661319e-02 1.44737616e-01
      5.55160828e-02 6.39226958e-02 9.17731225e-02 3.10060412e-01
      3.35881799e-01 2.04561070e-01 7.46771768e-02 6.82510585e-02
      5.45695499e-02 3.61971650e-03 9.07433871e-03 1.66860204e-02
      2.56651849e-01 3.35881799e-01 1.82989031e-01 1.67503580e-02
      6.94213249e-03 2.43197172e-03 4.96510640e-02 4.20432203e-02
      5.25053665e-02 1.62953347e-01 3.35881799e-01 3.35881799e-01
      6.39903620e-02 5.21906801e-02 4.76676226e-02 2.67586228e-03
      5.30823134e-03 8.02316610e-03 9.80605483e-02 3.35881799e-01
      3.35881799e-01 2.27548424e-02 4.92070615e-03 1.76511053e-03
      7.23419264e-02 8.44967216e-02 1.43858925e-01 1.86904818e-01
      2.03557983e-01 1.82278052e-01 1.66058287e-01 1.13102101e-01
      8.28772187e-02 1.46737769e-01 1.72477514e-01 2.41416201e-01
      2.57009238e-01 2.28682920e-01 2.27272615e-01 1.93701357e-01
      1.62986025e-01 1.70492962e-01 7.97754228e-02 9.30966288e-02
      1.27526820e-01 1.51400328e-01 2.03184560e-01 1.58327371e-01
      1.21490642e-01 7.91679844e-02 6.38461038e-02 1.61067143e-01
      1.44796833e-01 1.92675978e-01 2.25161403e-01 2.17540890e-01
      2.11496994e-01 1.54159889e-01 1.50331393e-01 1.26464784e-01
      8.99992809e-02 1.01547711e-01 1.39387026e-01 1.41435474e-01
      1.52012065e-01 1.06810272e-01 1.23773098e-01 9.05209109e-02
      8.01892877e-02 8.10284540e-02 1.08489200e-01 1.87893182e-01
      2.70646274e-01 2.90385574e-01 2.90385574e-01 2.47693717e-01
      1.02654308e-01 8.12528729e-02 9.29058120e-02 1.16591625e-01
      1.56609178e-01 1.58465743e-01 1.46269873e-01 1.19465984e-01
      1.48678094e-01 9.73244458e-02 1.05404563e-01 8.14603120e-02
      9.33154002e-02 1.10338077e-01 1.54732704e-01 2.90385574e-01
      2.90385574e-01 2.90385574e-01 1.64269745e-01 1.38317332e-01
      3.81636433e-02 6.15583137e-02 9.18402970e-02 1.24152988e-01
      2.66251236e-01 2.17651337e-01 1.30293518e-01 1.07761458e-01
      7.37335309e-02 5.06752431e-02 7.19351023e-02 1.27676234e-01
      1.30898535e-01 2.67060488e-01 2.67060488e-01 1.34273157e-01
      1.02492765e-01 5.98753281e-02 6.63135350e-02 6.05937578e-02
      6.55456707e-02 1.04133874e-01 1.65609851e-01 2.48737082e-01
      2.67060488e-01 2.67060488e-01 1.49458602e-01 1.25661969e-01
      8.81219059e-02 1.34910360e-01 2.27235153e-01 2.63921499e-01
      2.67060488e-01 1.63843066e-01 1.63912460e-01 1.85585693e-01
      1.47944391e-01 1.07171319e-01 1.26843244e-01 1.58194900e-01
      1.80296212e-01 2.30391711e-01 1.79665998e-01 1.10985614e-01
      1.18426517e-01 1.19202197e-01 4.05645147e-02 5.46680726e-02
      7.01831952e-02 1.71945393e-01 2.63056934e-01 2.63056934e-01
      1.06507801e-01 8.94178897e-02 2.04404622e-01 2.12242350e-01
      1.96772903e-01 1.08248733e-01 7.80103654e-02 7.16801733e-02
      1.04678653e-01 1.64675474e-01 1.60834938e-01 2.15334505e-01
      1.86775222e-01 2.05045447e-01 1.01657450e-01 1.35822833e-01
      2.63056934e-01 2.63056934e-01 1.84561551e-01 1.75011665e-01
      5.78726493e-02 6.45879209e-02 7.50740916e-02 9.64319631e-02
      2.00526655e-01 2.03428984e-01 3.36007595e-01 1.26667798e-01
      6.95223957e-02 6.89729303e-02 5.39444387e-02 8.61085132e-02
      1.13099173e-01 1.68984577e-01 1.02902457e-01 1.26998752e-01
      1.10118575e-01 8.39711726e-02 4.24807705e-02 3.93585116e-02
      4.18223403e-02 5.67763932e-02 1.24861166e-01 2.67398208e-01
      3.70346636e-01 3.70346636e-01 9.30731371e-02 1.14263184e-01
      5.74008524e-02 7.77356327e-02 6.87160194e-02 1.30571738e-01
      1.40835777e-01 3.28651488e-01 2.87967980e-01 1.51047260e-01
      1.18413709e-01 1.09806143e-01 1.20579123e-01 1.20283261e-01
      1.99514985e-01 1.87884256e-01 1.35958672e-01 1.63171008e-01
      1.28041297e-01 2.56562114e-01 2.49010995e-01 1.63832352e-01
      1.31349534e-01 1.73651248e-01 1.24710537e-01 1.36528715e-01
      1.82792559e-01 1.91207945e-01 1.90756306e-01 1.61013454e-01
      1.88964710e-01 1.21236436e-01 1.41364291e-01 1.03226058e-01
      1.30958736e-01 1.70995101e-01 1.44454941e-01 2.30432943e-01
      2.17196539e-01 1.65631980e-01 1.27853513e-01 1.45362690e-01
      1.38469175e-01 1.58368081e-01 2.00045958e-01 1.98537126e-01
      9.07455534e-02 1.08722180e-01 2.45351061e-01 1.51684359e-01
      6.33821785e-02 5.04708923e-02 7.75847957e-02 1.12649791e-01
      1.23904228e-01 1.11498915e-01 1.37806833e-01 3.28787297e-01
      3.28787297e-01 9.58447754e-02 3.26722413e-02 4.34773564e-02
      6.74280822e-02 8.73279721e-02 6.23227991e-02 3.28787297e-01
      3.28787297e-01 1.63336381e-01 5.32801077e-02 3.50066349e-02
      2.22613793e-02 3.41243781e-02 4.72916253e-02 5.86044230e-02
      3.20484608e-01 3.28787297e-01 3.28787297e-01 4.37230580e-02
      1.58668589e-02 1.59770455e-02 2.44784690e-02 2.82077286e-02
      2.28779197e-01 2.28779197e-01 2.12955162e-01 9.75672528e-02
      8.79436731e-02 7.01390654e-02 9.34356153e-02 1.44679278e-01
      2.19095305e-01 2.28779197e-01 1.78720936e-01 2.21687540e-01
      1.86619952e-01 1.70858681e-01 1.36769712e-01 1.06471032e-01
      1.13824010e-01 1.88370824e-01 2.02794731e-01 1.11431144e-01
      1.20006211e-01 1.18474603e-01 1.67179212e-01 1.66957289e-01
      1.87531412e-01 1.41630441e-01 1.49872109e-01 1.29876226e-01
      9.24140066e-02 1.30226642e-01 1.96990937e-01 2.28779197e-01
      2.28779197e-01 2.12047160e-01 1.04713462e-01 1.21012419e-01
      5.82035370e-02 2.64361650e-02 2.29389146e-02 1.93473939e-02
      3.21793407e-02 7.48700947e-02 2.93242842e-01 2.93242842e-01
      2.93242842e-01 8.59254450e-02 3.09990756e-02 1.71977617e-02
      1.31227337e-02 2.19398290e-02 5.28079830e-02 2.29116082e-01
      2.93242842e-01 2.93242842e-01 9.63170230e-02 6.58204779e-02
      6.46607503e-02 4.13078219e-02 8.49620849e-02 1.23399653e-01
      2.27470055e-01 2.93242842e-01 2.14855090e-01 1.34198561e-01
      7.28272051e-02 6.82492331e-02 3.64491642e-02 7.51198232e-02
      1.09117046e-01 2.36898094e-01 2.93242842e-01 2.75876760e-01
      2.83070058e-01 7.31101856e-02 3.14197131e-02 3.70094180e-02
      1.76681504e-02 1.54532185e-02 2.78320480e-02 1.08543985e-01
      2.83070058e-01 2.83070058e-01 2.71040320e-01 4.84906062e-02
      3.59487496e-02 1.39954807e-02 1.23821851e-02 2.52301376e-02
      6.96586668e-02 2.00642928e-01 2.83070058e-01 1.10739052e-01
      9.16645303e-02 1.37257129e-01 1.18712664e-01 6.76023811e-02
      1.07525125e-01 2.31919736e-01 2.83070058e-01 2.83070058e-01
      2.10244790e-01 1.05700664e-01 1.13972925e-01 1.17446110e-01
      8.29688087e-02 1.37553886e-01 2.61375487e-01 2.69426674e-01
      2.37597927e-01 2.37597927e-01 2.37597927e-01 1.46588072e-01
      1.00749962e-01 8.34424421e-02 9.86189693e-02 7.48588517e-02
      1.26209870e-01 1.39980361e-01 2.19407022e-01 2.19449729e-01
      1.81498215e-01 1.36706889e-01 1.51890278e-01 1.47926614e-01
      1.41903818e-01 1.35950804e-01 1.47995114e-01 1.19533896e-01
      1.48044348e-01 1.49315596e-01 1.99445233e-01 1.87210873e-01
      1.87582240e-01 1.63628638e-01 1.50731772e-01 8.27351063e-02
      4.90905344e-02 7.80883208e-02 1.32375404e-01 2.05573305e-01
      2.36277074e-01 2.37597927e-01 2.37597927e-01 1.53404519e-01</_>
    <_>
      1.87654555e-01 2.41861627e-01 1.38874784e-01 9.41654071e-02
      5.73347174e-02 6.00801073e-02 6.31372482e-02 8.05166438e-02
      1.22589514e-01 3.19396734e-01 3.19396734e-01 1.56405941e-01
      1.07022621e-01 1.05102815e-01 5.17187975e-02 5.86729981e-02
      1.08956620e-01 1.83948144e-01 2.72677511e-01 3.19396734e-01
      3.19396734e-01 6.12769984e-02 2.97602527e-02 2.53264103e-02
      3.46974060e-02 6.44097850e-02 9.37440023e-02 3.19396734e-01
      3.19396734e-01 1.22414544e-01 3.00418045e-02 1.84787679e-02
      9.28949658e-03 1.11101372e-02 5.25639206e-02 1.36738420e-01
      3.15876454e-01 9.90645215e-02 6.05058707e-02 5.30382842e-02
      4.18952778e-02 3.15645672e-02 5.68941198e-02 1.67972445e-01
      3.15876454e-01 3.15876454e-01 1.59047484e-01 8.65153000e-02
      6.33170158e-02 4.55744304e-02 3.78222689e-02 5.09651713e-02
      2.34034672e-01 3.15876454e-01 3.15876454e-01 6.51287362e-02
      1.36409290e-02 7.49328779e-03 5.27091417e-03 2.61657848e-03
      1.69004593e-02 9.44940820e-02 3.15876454e-01 2.08827287e-01
      4.35083695e-02 1.92093197e-02 9.63181630e-03 8.93909205e-03
      8.96054786e-03 2.74349414e-02 2.99382567e-01 3.15876454e-01
      1.59467295e-01 1.51038304e-01 1.26742959e-01 1.05413266e-01
      1.17703579e-01 9.98276323e-02 1.61171928e-01 1.58034414e-01
      1.12838760e-01 1.71182215e-01 1.68021396e-01 1.71176702e-01
      1.20050073e-01 1.15194596e-01 7.65253454e-02 9.34603587e-02
      1.13633171e-01 1.38927400e-01 1.64557934e-01 1.25494227e-01
      9.01196450e-02 4.04939242e-02 3.90489325e-02 1.24629766e-01
      2.74650156e-01 2.74650156e-01 2.37311855e-01 2.02318683e-01
      2.50736505e-01 2.44697690e-01 1.15522183e-01 7.40276501e-02
      1.39934629e-01 2.55624950e-01 2.74650156e-01 2.30910853e-01
      1.76794499e-01 1.25432312e-01 1.39724687e-01 1.21363066e-01
      2.18756065e-01 1.73266113e-01 1.49263337e-01 2.10310519e-01
      2.35986620e-01 1.28529087e-01 1.19912185e-01 7.77921006e-02
      1.59870788e-01 2.35986620e-01 2.35986620e-01 2.05306754e-01
      1.85633346e-01 2.02463806e-01 2.13848680e-01 1.61219031e-01
      1.49133369e-01 1.39018238e-01 1.78972200e-01 1.32778689e-01
      1.14873387e-01 1.14970170e-01 1.82013780e-01 1.05577633e-01
      1.18358843e-01 8.58100429e-02 1.75298423e-01 2.35986620e-01
      2.04792887e-01 1.44636229e-01 9.86955091e-02 1.03931829e-01
      1.89860940e-01 2.87589759e-01 2.87589759e-01 1.79212019e-01
      8.82937089e-02 5.27869873e-02 4.65399325e-02 9.56072062e-02
      1.38095230e-01 2.00287491e-01 2.76442170e-01 1.81686699e-01
      1.19498827e-01 1.09788857e-01 8.28846321e-02 7.32393041e-02
      1.23005033e-01 1.87306508e-01 1.35001078e-01 1.52967349e-01
      1.77726939e-01 1.73885167e-01 1.58344090e-01 1.09632224e-01
      1.30853340e-01 1.50825083e-01 1.67202085e-01 1.65688485e-01
      2.26206526e-01 1.61385655e-01 1.54137895e-01 1.74080253e-01
      1.78626001e-01 1.48593605e-01 1.55907407e-01 1.97153583e-01
      2.22434208e-01 1.81913853e-01 1.36386946e-01 1.10108972e-01
      9.22394097e-02 9.48462859e-02 1.13540687e-01 1.53188676e-01
      1.66560352e-01 2.09868968e-01 2.12912947e-01 1.66600212e-01
      1.50391474e-01 1.38796002e-01 9.54055488e-02 1.47855908e-01
      2.07823515e-01 2.01000586e-01 2.10059345e-01 2.12270156e-01
      1.94655970e-01 1.13087326e-01 1.39371157e-01 9.00287032e-02
      8.19644779e-02 9.97691751e-02 1.44775525e-01 2.13620007e-01
      2.07699075e-01 2.55587012e-01 2.23067865e-01 2.35173911e-01
      1.16899408e-01 9.80918035e-02 1.30608663e-01 1.56340197e-01
      1.45566791e-01 1.49666756e-01 7.00549632e-02 2.19580252e-02
      5.82955591e-02 1.84139907e-01 3.10740441e-01 2.77707338e-01
      8.88662189e-02 4.11896184e-02 4.13669646e-02 1.97318885e-02
      8.36166553e-03 5.92229255e-02 3.10740441e-01 3.10740441e-01
      2.06138492e-01 4.08500470e-02 2.21134424e-01 3.10740441e-01
      1.30836323e-01 3.55230272e-02 5.91764003e-02 1.20714605e-01
      1.41415298e-01 4.40194830e-02 1.11408345e-01 1.29992723e-01
      1.27511352e-01 5.24690449e-02 3.70580181e-02 1.36695281e-01
      3.10740441e-01 3.10740441e-01 6.94870651e-02 1.19151801e-01
      7.96520635e-02 6.61007538e-02 4.75328006e-02 8.00722688e-02
      1.88651308e-01 2.35912606e-01 2.51406074e-01 2.36828715e-01
      1.30862668e-01 9.64432582e-02 1.16110615e-01 9.45810005e-02
      1.24826804e-01 2.00904161e-01 1.91358343e-01 1.58788487e-01
      1.87973008e-01 1.08268410e-01 2.96459477e-02 3.29699330e-02
      3.05538680e-02 7.84314051e-02 2.19104558e-01 2.51406074e-01
      2.51406074e-01 2.51406074e-01 1.05595157e-01 5.88598475e-02
      7.58010298e-02 1.21578120e-01 1.54707238e-01 2.51406074e-01
      2.51406074e-01 2.51406074e-01 2.16198504e-01 1.08510874e-01
      9.84867960e-02 9.49687809e-02 1.40705913e-01 1.75479025e-01
      1.68739378e-01 1.87440723e-01 1.80043548e-01 1.12828642e-01
      7.56079629e-02 1.98708370e-01 1.77952707e-01 2.51264572e-01
      2.54144907e-01 1.83457121e-01 1.94237724e-01 1.71626344e-01
      1.55289829e-01 1.44660279e-01 9.23535004e-02 1.20903514e-01
      1.41017959e-01 1.67708725e-01 1.96714476e-01 1.83107957e-01
      1.57255888e-01 9.28997472e-02 7.50892833e-02 1.24815829e-01
      1.82224602e-01 2.32869521e-01 2.39678591e-01 1.75960839e-01
      1.95834771e-01 1.53824732e-01 1.39976069e-01 1.16246089e-01
      8.08762312e-02 1.03459626e-01 1.11074239e-01 1.19693719e-01
      1.64674610e-01 1.61576226e-01 1.25717819e-01 1.04842342e-01
      8.34774971e-02 7.51358643e-02 1.44457012e-01 1.95959508e-01
      2.63228327e-01 2.87203312e-01 2.87203312e-01 2.22921729e-01
      1.46365777e-01 7.27445856e-02 8.95542204e-02 1.02651916e-01
      1.25106737e-01 1.33387551e-01 1.70905903e-01 1.37328908e-01
      1.55017480e-01 1.03065461e-01 8.80282596e-02 7.32719526e-02
      1.04766488e-01 1.00586712e-01 1.84981689e-01 2.87203312e-01
      2.87203312e-01 2.87203312e-01 1.72251135e-01 1.01826169e-01
      4.64670174e-02 6.96522221e-02 1.15461595e-01 1.09067217e-01
      2.48364210e-01 2.36384735e-01 9.43688005e-02 8.26489180e-02
      4.77017462e-02 6.17515855e-02 7.50642493e-02 1.13916181e-01
      1.29297853e-01 2.83605069e-01 2.83605069e-01 1.36733264e-01
      9.22929272e-02 4.73237820e-02 6.53382614e-02 6.64208829e-02
      7.98070580e-02 8.26757103e-02 1.87652856e-01 2.83605069e-01
      2.26055920e-01 2.50670016e-01 1.48930699e-01 8.92359838e-02
      9.21590328e-02 1.45740375e-01 2.77771682e-01 2.83605069e-01
      2.83605069e-01 1.10256612e-01 1.10538639e-01 1.61720723e-01
      3.07457782e-02 1.84418894e-02 7.48703182e-02 1.74089298e-01
      2.62241989e-01 2.62241989e-01 1.05703041e-01 4.95539159e-02
      3.61433811e-02 6.40492812e-02 6.63991868e-02 2.25785404e-01
      2.62241989e-01 2.62241989e-01 2.62241989e-01 1.61434904e-01
      8.83153304e-02 6.89894259e-02 3.49341705e-02 6.72837496e-02
      1.36161730e-01 2.62241989e-01 2.62241989e-01 1.98208466e-01
      5.76477535e-02 3.14068459e-02 3.54080200e-02 8.06481540e-02
      1.21460490e-01 2.62241989e-01 2.62241989e-01 2.31552199e-01
      2.13813230e-01 1.37887135e-01 1.03842601e-01 9.31381136e-02
      5.79201654e-02 7.18367398e-02 9.97513756e-02 9.93961096e-02
      2.08111674e-01 2.06950173e-01 2.10190296e-01 1.56205103e-01
      8.78459588e-02 8.73820931e-02 6.10779785e-02 1.08773410e-01
      1.19339302e-01 2.25735188e-01 1.56997159e-01 1.37946770e-01
      1.46310315e-01 1.06298104e-01 8.04629922e-02 4.53864299e-02
      5.19466810e-02 5.97872175e-02 1.82127014e-01 3.19464266e-01
      3.26568395e-01 3.26568395e-01 1.54953882e-01 1.26561522e-01
      4.64320853e-02 5.52449711e-02 8.97132307e-02 1.93494096e-01
      1.61123455e-01 2.24492446e-01 2.73037046e-01 1.90305218e-01
      1.58991471e-01 1.25812277e-01 1.15189388e-01 1.13450751e-01
      2.11863756e-01 2.14778140e-01 1.47322714e-01 1.21498868e-01
      1.19115412e-01 2.61819333e-01 2.61819333e-01 1.93089917e-01
      1.33565217e-01 1.71642140e-01 1.47039592e-01 1.21918455e-01
      1.45866096e-01 1.82447508e-01 1.93147331e-01 1.60831824e-01
      1.33752421e-01 1.25417635e-01 1.55286908e-01 1.38810128e-01
      1.14582777e-01 1.55592054e-01 1.43537864e-01 2.21508339e-01
      2.18920618e-01 1.51521236e-01 9.96284038e-02 2.02637970e-01
      1.68334350e-01 1.57484904e-01 1.70889497e-01 1.56009868e-01
      1.36702299e-01 7.43032247e-02 2.10878208e-01 1.47247836e-01
      7.02990964e-02 4.33794297e-02 1.10221945e-01 1.24772370e-01
      1.51280150e-01 1.42621070e-01 1.02314077e-01 3.31595033e-01
      3.31595033e-01 1.38932616e-01 4.18826267e-02 4.57182974e-02
      6.13340028e-02 1.06420889e-01 9.39641595e-02 2.85584748e-01
      3.31595033e-01 2.11136341e-01 9.10044089e-02 3.37971672e-02
      3.69195491e-02 4.69483919e-02 6.36957288e-02 7.08516240e-02
      2.54662871e-01 3.31595033e-01 3.31595033e-01 7.97385499e-02
      2.87351012e-02 1.35907801e-02 1.19171757e-02 2.61266921e-02
      1.10934719e-01 1.49837300e-01 2.44864151e-01 2.44864151e-01
      2.38887742e-01 1.35578349e-01 8.70369077e-02 6.10548966e-02
      8.75150636e-02 1.19956397e-01 1.22595236e-01 1.39030710e-01
      1.94167823e-01 2.44864151e-01 1.66974932e-01 1.36146545e-01
      1.10938318e-01 1.31886989e-01 1.04238629e-01 1.53416231e-01
      2.02739373e-01 2.44864151e-01 2.44864151e-01 1.92108929e-01
      1.85144678e-01 1.27899349e-01 1.09464861e-01 1.16158217e-01
      1.28700033e-01 1.41565815e-01 1.76788047e-01 2.37431616e-01
      1.75140753e-01 1.65931433e-01 1.50912970e-01 1.10842422e-01</_>
    <_>
      8.91961455e-02 1.20261058e-01 1.58439830e-01 1.41564727e-01
      1.45287737e-01 1.18454024e-01 1.24278247e-01 1.22573048e-01
      1.27665713e-01 9.49435905e-02 1.52452916e-01 1.94157198e-01
      1.49692416e-01 1.80366546e-01 1.86802030e-01 1.37009472e-01
      9.45405737e-02 7.93955401e-02 8.11023489e-02 1.30950585e-01
      2.00454801e-01 2.90090978e-01 2.90090978e-01 1.46192640e-01
      1.20968521e-01 8.81891772e-02 8.78262520e-02 1.22723266e-01
      2.37037271e-01 2.68434316e-01 2.90090978e-01 2.90090978e-01
      1.84031680e-01 1.19693361e-01 7.56893083e-02 6.77266419e-02
      1.55424461e-01 1.03237927e-01 8.79154727e-02 6.71814755e-02
      4.14250046e-02 3.08552831e-02 6.59583732e-02 1.15662202e-01
      2.03947708e-01 1.52343065e-01 9.85951722e-02 6.32584542e-02
      6.20329194e-02 6.54205084e-02 4.81781475e-02 1.04945652e-01
      1.73103362e-01 1.87773973e-01 2.99623668e-01 2.99623668e-01
      2.32064635e-01 9.09811109e-02 2.59569567e-02 3.56026888e-02
      7.87438750e-02 2.02949792e-01 2.99623668e-01 2.99623668e-01
      1.79213300e-01 4.41342369e-02 3.95995863e-02 2.53660120e-02
      5.96181639e-02 2.72765368e-01 2.99623668e-01 2.99623668e-01
      7.80273676e-02 7.06988648e-02 8.67197067e-02 1.68151811e-01
      1.86077371e-01 1.68647185e-01 1.35160327e-01 1.23191416e-01
      1.02520809e-01 7.04716370e-02 8.81269202e-02 1.23031408e-01
      2.07881734e-01 1.87898621e-01 1.39517695e-01 1.21252872e-01
      9.55912024e-02 5.66414073e-02 1.09646507e-01 5.72948046e-02
      4.76703458e-02 9.64078829e-02 2.02237353e-01 2.60752290e-01
      3.05346400e-01 3.05346400e-01 2.84769624e-01 7.75516480e-02
      8.11029151e-02 9.79486778e-02 2.05071166e-01 3.03718239e-01
      1.40273049e-01 2.43834347e-01 2.01258868e-01 1.03392899e-01
      7.69748315e-02 1.25522748e-01 1.41385794e-01 2.31880844e-01
      2.91211694e-01 2.16515839e-01 1.46458134e-01 9.15988684e-02
      5.23497760e-02 1.44763678e-01 1.92180917e-01 2.04531908e-01
      2.43931413e-01 2.31923610e-01 1.32038325e-01 1.52158856e-01
      1.22299366e-01 9.25362110e-02 6.10778891e-02 1.02759600e-01
      1.28515854e-01 1.66555315e-01 2.72069335e-01 1.85827330e-01
      2.16231540e-01 1.36547863e-01 5.73968776e-02 8.65523145e-02
      9.95505005e-02 1.36045784e-01 1.24669887e-01 1.86544314e-01
      1.46113351e-01 2.63608962e-01 1.82051465e-01 1.19313791e-01
      2.93074064e-02 5.23774065e-02 1.33117735e-01 2.09996253e-01
      1.27632514e-01 2.75605265e-02 1.78745352e-02 1.13028521e-02
      1.39203453e-02 2.88732871e-02 1.17823936e-01 3.34241986e-01
      3.34241986e-01 3.30784649e-01 1.96904205e-02 9.13961884e-03
      7.51512451e-03 8.37806333e-03 1.16438083e-02 2.46405900e-02
      1.58464551e-01 3.31723779e-01 2.77797461e-01 6.47401214e-02
      1.43321892e-02 6.61028828e-03 7.98374508e-03 2.97318287e-02
      6.15224168e-02 3.34241986e-01 3.34241986e-01 3.34241986e-01
      7.87721947e-02 3.07125542e-02 1.71668995e-02 2.33590305e-02
      1.90617159e-01 1.77976236e-01 1.36341676e-01 1.36865571e-01
      1.43580586e-01 1.19222574e-01 8.81649479e-02 1.18470475e-01
      1.47509873e-01 1.08326502e-01 1.16792344e-01 1.58397481e-01
      1.72553301e-01 2.37682864e-01 1.93654805e-01 1.31563172e-01
      1.24821275e-01 1.00553021e-01 2.37682864e-01 2.25980073e-01
      1.82773069e-01 1.63643673e-01 1.27121910e-01 1.46616846e-01
      1.44444421e-01 1.99381083e-01 1.99932948e-01 1.54101536e-01
      1.59248069e-01 1.86870202e-01 2.20412165e-01 2.33594894e-01
      1.77446634e-01 1.34088233e-01 1.57244518e-01 1.71173543e-01
      2.98669804e-02 2.40703672e-02 2.93834526e-02 7.42323399e-02
      2.87368327e-01 2.87368327e-01 2.63794988e-01 1.69893131e-01
      6.85412735e-02 2.72733755e-02 1.38156405e-02 1.29751889e-02
      2.52432488e-02 1.37437880e-01 2.87368327e-01 2.87368327e-01
      2.53617704e-01 7.11279660e-02 3.28492224e-02 4.38542664e-02
      6.06054515e-02 1.40395433e-01 2.87368327e-01 2.87368327e-01
